325 52
156 -0.27668932 -1.8122194 -1.8142468 -2.005968 -0.36972383 -1.4593891 -1.411654 -0.38407198 3.1687367 -2.299681 0.44045234 2.8802793 -0.91262466 -1.7928969 0.023632834 0.6040694 -2.2083182 1.2984866 -1.0185034 0.85749835 1.3936157 0.06898367 0.6117281 1.0927609 -1.3940787 0.7321274 -0.90807164 2.708283 0.08654458 -1.2164763 1.6263175 1.4306232 -0.5456582 0.68101054 -0.014545657 0.58676183 -0.4749255 0.067268856 -1.2227409 -0.5504509 -1.045674 0.4565494 -0.75339365 1.0189788 1.3084795 -0.6838462 -1.01045 -1.7596532 0.14998665 -0.1785915 -0.09939126 -0.759608
115 0.3277852 0.9762808 -0.21269642 -1.2745955 0.32287392 -2.8968813 -0.96341527 0.3288021 0.7620911 -2.6580765 0.6851385 0.04878855 -0.9141986 3.2647514 0.6228447 -0.5724893 0.7273291 -0.38730207 -1.8219126 0.040171314 -0.90058595 0.8964729 0.7906806 -1.3247285 -2.832173 0.45670855 -0.31857678 -2.429449 -0.9130153 -0.4513541 -0.3984421 -0.5646644 -0.5978718 -0.13082431 -2.440095 -0.22622655 -0.63271606 1.3482859 1.7022014 -0.5314989 -0.90747607 -2.39384 -0.06667967 -1.3791767 1.5301698 -0.18005775 1.5734645 -0.59733063 0.25499377 -0.0013358181 0.09106518 -0.87480813
70 0.06633001 -0.43472922 -0.23558016 1.0034299 0.69935083 -0.7524097 0.3732314 0.62619466 -0.11222004 -0.7838707 -0.39375877 1.1214961 -0.99497384 0.49879906 -0.8532936 -1.7379452 0.83937365 -0.619974 -0.1281525 1.2097814 0.21536021 0.49038354 0.9545929 -0.98495686 -0.08355662 -0.63095874 -0.8627158 0.92195165 -0.3016152 -0.3886154 -1.8161145 0.4535984 -0.846526 -0.8478345 0.7111413 -0.7583961 -0.10067575 0.3877802 0.6218744 -0.44435066 -0.36891916 0.021278743 0.6724524 -0.47480956 -0.008963154 -0.11328042 0.74011815 0.11481297 0.33172294 0.5153403 0.5714076 -0.7099707
172 0.10713998 -0.5009803 -0.2318808 0.98074985 0.74072284 -0.8043609 0.4478135 0.64960873 -0.11609962 -0.77702546 -0.39143062 1.1363443 -1.047919 0.52552813 -0.88601893 -1.7951397 0.9498775 -0.64806426 -0.088899426 1.2969545 0.2397091 0.5085839 0.9392592 -0.95908 -0.17779507 -0.6787998 -0.9406802 1.0210905 -0.35674977 -0.46960986 -1.8735324 0.57874775 -0.9199458 -0.808771 0.68509835 -0.7858797 -0.08388119 0.3798504 0.64725333 -0.5208458 -0.40259886 0.0890013 0.6975937 -0.48395023 0.020241007 -0.11325814 0.74744153 0.14453593 0.3655137 0.52644026 0.47637206 -0.6887919
308 -0.52705604 -0.84166586 -1.4774406 -1.7432756 1.0103686 -0.6595279 -1.7316039 1.6982192 1.4461366 -1.280642 -0.34906664 0.36648986 -0.25828838 1.1304303 0.67124915 -0.89145416 -0.7554613 2.9227676 -1.4262166 0.27058148 0.37748447 -0.639331 1.155082 -1.1847216 0.01991075 1.0959669 -0.7525978 2.5620112 2.2880266 -2.1846256 -0.18072815 -0.42836726 0.9477972 2.3041334 0.36491165 0.28968355 -1.7405038 1.5631028 1.9580954 1.1840435 1.5037379 0.85393244 -0.53540945 -1.472484 2.2068083 -2.243817 2.0303073 1.3369846 0.8486137 0.8168601 0.47535256 -1.4053407
47 0.76619434 0.58458173 -0.77652514 0.5514318 -0.15904166 0.86111724 -1.5565207 0.19437075 -1.0501677 -2.5851247 0.4804424 0.08667408 -1.5875627 0.4027333 -0.03390444 -1.0784808 -0.6150704 0.96028674 0.050542798 0.23285839 -0.2602696 -0.14702795 0.54572284 -0.54775304 -1.6404628 -0.033199113 -0.69338244 0.4192141 0.1738343 -0.5790755 0.007039104 0.1518712 -0.6942565 0.31870347 0.102163985 0.042293772 -0.10408553 0.60205835 -0.6469856 0.803414 0.7271343 -0.067137845 -1.4258963 -0.48191118 -0.84825265 -0.5979213 0.34122273 0.121294655 1.1144677 -0.13240695 0.66746306 -0.12042778
255 0.7645905 0.50863284 -0.76734513 0.49076456 -0.20845175 0.91886854 -1.5901083 0.043886684 -1.096936 -2.4619994 0.47752714 0.030750155 -1.6365234 0.33699653 -0.008644807 -1.1096305 -0.63680273 0.984125 0.14771904 0.17248659 -0.2833358 -0.10029437 0.5832728 -0.52638525 -1.6299762 -0.021607975 -0.6406372 0.36526048 0.12752354 -0.7643521 -0.09909288 0.22237301 -0.6419695 0.26044598 0.045258705 -0.09079972 -0.06247437 0.66843086 -0.51995087 0.66986257 0.803139 -0.12239596 -1.5206373 -0.46896186 -0.8972078 -0.67671984 0.34296447 0.076533034 1.1991338 -0.09647809 0.72114575 -0.11693864
131 -0.6175115 0.000529766 0.6820091 -2.0365796 2.2372184 0.37429413 -3.178081 0.82374066 0.07892677 -1.0398682 0.7790917 0.40870777 0.47076547 -0.13879602 0.96802044 -1.210693 -0.46074867 0.84568316 -0.56063676 1.0115545 -0.53631383 -2.6934817 2.0933 -0.709099 -0.25635552 -0.566778 0.31794843 1.592916 -0.4216565 0.09938781 -1.3725451 2.3913145 -0.2664042 0.16425444 -0.9128507 -0.9832703 0.36206245 1.3397174 1.4724718 0.8596507 -2.0970867 -1.055156 -0.46055138 0.9020863 0.4223511 0.6452354 -0.8128613 -1.0850215 0.7796087 -0.32817352 0.4866772 0.54873765
153 0.53234804 -0.43009868 -0.18461312 -0.40753788 0.70282364 0.686353 -0.07506823 1.0386167 0.21546184 -0.97854215 0.32726994 -0.71623015 -0.2064208 -0.56505203 -0.27812693 -0.22327617 -0.20193277 0.14901857 -0.8613919 -0.7795279 0.22665031 -0.07206589 0.04844279 -0.60645473 -0.06679651 -0.19061339 -1.5130533 0.52719945 0.37240773 -0.7645303 -0.16051853 1.0830705 0.20193133 1.2034241 -0.3679477 -0.3441073 0.21040572 0.5143143 0.52436805 0.1221321 -0.34093902 -1.0132601 0.39494443 0.33151168 -0.45737007 -0.004983114 0.67265004 0.24444576 0.748779 -1.1033698 -0.4163053 -0.29828218
319 0.4112478 -0.4976846 -0.21753816 -0.41829672 0.6893447 0.71542585 -0.14264145 0.97317237 0.24805516 -1.0674084 0.26970994 -0.7292995 -0.24111003 -0.5368476 -0.2097634 -0.14233 -0.25638047 0.06395387 -0.83400446 -0.77808744 0.19348346 -0.03264496 0.09757606 -0.6809853 -0.032221954 -0.13504279 -1.5531657 0.5231724 0.3510458 -0.69405633 -0.20745426 1.1229844 0.14110485 1.2005633 -0.34913337 -0.35742894 0.17251913 0.5506275 0.46170977 0.16666493 -0.36261344 -0.96315384 0.38188803 0.26512504 -0.51741 0.05766255 0.80896 0.3477375 0.67024904 -1.1068932 -0.33382353 -0.20604198
154 0.38779393 -0.43995482 -0.17843693 -0.4382652 0.7220925 0.7511305 -0.03486724 1.0530424 0.24402744 -1.0741313 0.29940346 -0.7309795 -0.20086032 -0.59506005 -0.3076068 -0.23742391 -0.31051862 0.19154212 -0.89236766 -0.781702 0.21629682 -0.100734286 0.11418504 -0.70839316 0.065631084 -0.17668758 -1.5492878 0.50413847 0.35450473 -0.6579255 -0.13679433 1.1012373 0.18470496 1.1667452 -0.3411282 -0.37358835 0.08558759 0.5497307 0.4658329 0.1727409 -0.35219166 -1.0617955 0.41752586 0.3040884 -0.48915237 0.027588282 0.76526165 0.23064743 0.6899925 -1.0490122 -0.30886817 -0.26182494
260 -0.2845583 -0.044042267 -0.45763573 0.06441606 0.060998935 0.7253099 -0.46990824 0.308132 0.15023856 -0.17174117 -0.038926166 -0.05274327 -0.042227842 0.22435893 -0.36761996 -0.32391128 -0.19521412 0.27277943 -0.91280556 0.355626 0.39815056 0.41636828 0.34721377 0.21337025 -1.0144559 0.43630254 -0.24131031 -0.13973081 0.31694666 -0.9689491 -0.6487638 0.8641699 0.2052518 0.8961965 -0.2771992 -0.16459231 0.7556723 -0.594822 -0.19955982 0.5777772 0.6516444 0.40720713 0.06594633 -0.34067446 1.026179 -0.1732285 0.36617285 0.25741214 0.3860253 -0.43005803 0.9972442 -0.33338067
248 -0.5739407 0.100418694 0.88143724 -0.2869738 0.27579966 1.2563598 -1.2541016 1.6955862 1.6596435 -1.0558273 -0.45377344 1.000465 -0.35509112 0.8147905 1.0473078 -0.51913834 -0.860131 2.2106633 -0.14382106 0.99144703 1.5303591 0.012596756 1.3873982 -1.3201747 -0.5947924 0.27527004 0.19428632 0.6845876 0.8901157 -1.9626257 -0.59694636 1.3453093 -0.25756466 0.8733937 -0.3471176 1.7079635 -1.2716463 0.5670621 1.7867455 1.0839769 0.094268225 0.6294915 -0.50348586 2.0942373 0.5953242 -1.0343106 -0.24391738 0.07639898 1.460433 1.152515 0.28831315 -0.39301145
259 -0.29318467 -0.07361743 -0.46405023 0.08450519 0.13913484 0.63296485 -0.47936386 0.33356228 0.14435919 -0.2613655 -0.14039966 -0.055880114 0.0542223 0.23301849 -0.3575841 -0.38454476 -0.19562238 0.29596713 -0.87480396 0.30289155 0.3891957 0.40973765 0.3006294 0.18461494 -1.0960613 0.44908822 -0.19061904 -0.13132714 0.41374192 -0.86964154 -0.72407156 0.8495036 0.43623856 0.8609238 -0.14047027 -0.116444275 0.8025237 -0.46532336 -0.2133048 0.47020185 0.73829466 0.3554702 0.09012162 -0.3259088 1.0060978 -0.19417718 0.35438412 0.14574532 0.28099334 -0.45754156 0.98019594 -0.36887005
264 -0.27894267 -0.047190145 -0.43424913 0.031195214 0.1099529 0.6763894 -0.5191841 0.33428067 0.1075555 -0.15467745 -0.10284435 -0.039847273 0.014308625 0.2096668 -0.4055714 -0.3444304 -0.25773436 0.23067161 -0.8658443 0.3248782 0.39512673 0.37860844 0.27589288 0.24155545 -1.0096449 0.49627382 -0.1674496 -0.20585555 0.35763595 -0.9132881 -0.6849592 0.9461044 0.2750153 0.89613193 -0.2057766 -0.11923861 0.67763555 -0.2890779 -0.17558207 0.49710637 0.71931535 0.5055016 0.099085085 -0.33093503 1.0193285 -0.1854407 0.28418607 0.25099194 0.33311075 -0.42667878 1.0463467 -0.32471392
268 -0.30804667 -0.10735339 -0.41308397 0.047413144 0.065720476 0.65596604 -0.4971098 0.31487393 0.10278159 -0.22936273 -0.0668385 -0.0518832 -0.022437437 0.24993882 -0.33761978 -0.3912979 -0.25572622 0.37412292 -0.91146773 0.29489926 0.30852774 0.4705539 0.18455681 0.3693047 -1.0119035 0.43933338 -0.07503033 -0.22095157 0.36811945 -0.9203847 -0.6700616 0.8927533 0.3791817 0.865205 -0.20520005 -0.2118077 0.77602416 -0.41568932 -0.088415906 0.57883525 0.63557386 0.3692797 0.06090919 -0.38081178 1.0077884 -0.2041953 0.32151303 0.14541481 0.3615908 -0.4697441 0.9282344 -0.3560559
258 -0.30721542 -0.07801462 -0.50903285 0.11897103 0.058176726 0.6320517 -0.5167427 0.296487 0.14994544 -0.23709497 -0.11563737 -0.075966336 0.026583193 0.27555108 -0.39187074 -0.40405867 -0.22591874 0.30444604 -0.9501014 0.31331366 0.3950017 0.41418284 0.3160307 0.21025108 -0.9698644 0.39583215 -0.19649474 -0.13753389 0.31903055 -0.9842794 -0.6344041 0.9310725 0.46296087 0.8575549 -0.14511323 -0.13369887 0.7815711 -0.4891368 -0.16686857 0.5131299 0.6383143 0.36972585 0.023495497 -0.33766243 0.97226834 -0.20131202 0.30419374 0.2678862 0.37932858 -0.4739413 0.97790897 -0.3070818
58 0.20333698 0.12075616 -0.23464906 0.6131855 0.21386907 -0.4593492 0.29143286 0.39812505 0.061647736 -0.15958613 0.09860385 0.90743095 -0.46939167 0.48766148 -0.42550856 -1.1515166 0.49919358 -0.568462 0.25676718 0.5503564 0.21527067 -0.14177498 0.5892395 -0.49531454 -0.40863046 -0.25501683 -0.8733377 0.095202915 0.5315466 -0.6605128 -1.0004936 0.3511066 -0.47327307 -0.62136596 0.07612072 -0.21462986 -0.045060016 0.44312274 0.59943485 -0.13766125 -0.491922 -0.08506007 0.6097727 -0.5077876 0.18969338 0.054583874 -0.1972331 -0.38824314 0.36322898 0.3234842 0.50197303 -0.23460014
287 -3.0109122 -1.7085379 -0.85724694 2.4359992 3.291944 0.049736056 -1.5150775 -0.32495263 1.9328612 -3.4143288 1.1996675 3.3701262 -1.5595437 -0.5159344 0.008371517 9.469501 5.0199447 5.811339 -2.6752648 2.1670368 -3.8935957 3.5532546 11.456995 -2.2244089 -8.143164 4.5528193 -2.8175306 5.0494514 5.5558734 -8.539432 -0.30068156 -2.6252837 -0.523275 -0.4637698 -0.04401056 3.6197295 4.8962827 0.19006315 -3.8204002 -10.495268 -0.46692625 2.5213056 -3.5114367 3.3191116 -2.0266411 -1.1693172 -0.38781798 2.205244 -1.8760351 1.2022158 2.5106242 -4.274226
149 0.094734505 0.33179644 -0.2706608 0.4214686 0.17413893 -0.47867116 0.13506907 0.29479805 0.10298197 -0.07576979 -0.053959727 0.9271249 -0.4729483 0.66788703 -0.34001786 -1.0924027 0.57056296 -0.40967909 0.15812756 0.56226903 0.31505385 -0.13070385 0.5434443 -0.9182356 -0.54324335 0.0067835506 -0.8688662 0.07273282 0.4590737 -0.4407598 -0.7261529 0.5415982 -0.30662465 -0.57770044 -0.006345178 -0.08224399 0.089379154 0.28902557 0.9081839 -0.28853384 -0.38950172 -0.28866044 0.73241353 -0.52740395 -0.10071007 0.32742712 -0.26487827 -0.44636807 0.32546166 0.33759177 0.4801605 -0.2117903
170 0.19884661 0.45023572 -0.14911887 -0.8450887 0.59211856 0.028706457 -0.6455673 0.68288404 -0.17689109 -0.3050277 -0.02820796 -0.17125356 0.22762692 -0.10915584 -0.081529 -0.592728 0.122187935 -0.0066402894 -0.023707878 0.5271373 -0.07767154 -0.30038768 0.722572 0.0751058 -0.085070565 -0.30583712 -0.30699635 0.18323818 0.15309823 0.046829514 -0.572448 0.48978138 -0.3287218 0.07018784 -0.6603473 -0.33935574 0.16727525 0.6928017 0.75157386 0.011329068 -0.36065292 -0.6181332 -0.1449057 -0.2995018 0.06201324 0.06043901 0.108011015 0.111618295 0.05705562 -0.45721176 0.13639325 0.14307483
99 0.071930386 0.21464221 -0.33578557 0.3828715 0.19079138 -0.4870044 0.022587359 0.29587504 -0.02909318 -0.0835366 -0.023919327 0.91062516 -0.43854982 0.7241477 -0.47267222 -1.0384947 0.57027614 -0.5474728 0.12773514 0.5845986 0.37897915 -0.1898563 0.55974984 -1.0020664 -0.47071722 -0.111147024 -0.9136318 -0.065946355 0.4292975 -0.52635 -0.63996834 0.48030326 -0.38664734 -0.447541 0.04271531 -0.107910156 -0.014405095 0.45262283 0.6796759 -0.27399927 -0.566789 -0.1743685 0.74523455 -0.53042275 -0.028341155 0.30018675 -0.17370944 -0.30776176 0.23148695 0.2961551 0.4407039 -0.16739531
171 0.2420222 0.47953758 -0.063889734 -0.78301907 0.4792357 -0.10228247 -0.76739347 0.67963874 -0.21037969 -0.3044619 -0.057253573 -0.36876544 0.25655174 -0.055644907 0.02176578 -0.6278216 -0.018047815 -0.08553598 -0.056390304 0.4096075 -0.121103965 -0.29117253 0.69709414 -0.006648351 0.009651571 -0.35497302 -0.23789462 0.2932317 0.0346399 -0.19318551 -0.5593469 0.68926495 -0.3679088 -0.11953686 -0.5172591 -0.23960845 0.11373818 0.612529 0.7004527 0.043700505 -0.34768382 -0.7015366 -0.06684118 -0.30191123 0.16981566 0.13547015 0.26791313 0.10988682 0.100282475 -0.2743521 0.106020905 0.18659976
0 -2.9878256 -2.090158 -0.55989254 2.7959979 4.130365 0.11348867 -1.2835633 0.3226616 2.3288245 -4.0580654 1.5049995 4.3964376 -1.6355535 -0.43557164 -0.025247639 11.073968 5.494472 6.856067 -3.126437 2.1904683 -4.667296 4.417577 13.1068535 -2.4978745 -9.58966 5.3727455 -3.1350598 6.132182 5.8533835 -9.480476 0.03656444 -3.066469 -1.2791688 -0.5399481 0.35823527 3.6803055 5.777144 -0.32963693 -4.400589 -12.024661 -0.7675367 3.1262708 -3.9830332 3.8710227 -1.8810066 -1.0705204 -0.29271734 2.3751304 -2.070641 1.657214 2.3306773 -5.0215635
1 -4.844099 -1.4746027 0.23508078 3.7006576 2.2704425 -1.7586483 1.5257295 0.43820944 0.4546545 -11.91349 0.1293532 6.000582 1.8254676 0.3816198 1.5012254 15.753731 2.8985996 9.059362 -6.125515 0.14453591 -4.55774 10.757822 14.705764 -2.7429264 -6.3764215 6.001343 -3.9191895 3.4660692 6.911885 -9.471858 -0.9944308 -3.2687616 -0.14184508 2.5636013 -0.6518814 9.124302 8.878694 -1.4362041 -8.088582 -13.019978 -0.21561554 5.7184734 -1.9941878 2.0797703 -4.071882 -1.3452597 -0.37586558 4.8500657 -3.065366 2.3478 7.40886 -4.512184
282 -3.9587438 -1.3165421 -0.26124763 4.5403275 1.8839053 -1.6629179 1.3462191 0.5573038 0.7194146 -12.23386 1.533734 5.934674 1.0144242 0.3788727 1.9004539 14.977044 3.5174577 8.45023 -5.183403 -0.9111254 -4.778565 11.490692 13.916437 -3.0854084 -6.766162 6.384777 -3.171152 3.7012563 6.6925287 -9.277758 -0.7949745 -2.5008652 -0.6153317 2.871252 -0.15061624 9.068296 8.208353 -0.6028762 -7.643012 -12.968793 0.46509033 5.8988657 -2.7516356 1.7483879 -4.5500755 -1.6782917 -1.2532985 4.417494 -4.723639 1.3291483 8.110095 -4.6680584
77 -5.3726687 -2.1599221 0.5149991 4.9350967 2.438119 -1.3602812 0.7019895 0.7065413 0.50904447 -12.11283 1.4166107 6.4371896 0.91449064 1.4133595 0.89512336 14.365118 2.8875256 9.277362 -5.7200317 -0.49386987 -4.004873 10.692207 14.908054 -2.2007208 -7.0912347 5.7885466 -3.6327944 3.9067335 6.6176214 -9.054623 -0.57416314 -2.9793496 0.32598186 2.0898254 0.030166127 9.780833 8.425287 -0.59190243 -7.9062114 -12.997908 -0.42275873 5.2484264 -2.5351884 1.6809546 -4.294465 -0.8721236 -1.1509448 6.046188 -4.191441 1.5875098 7.4203005 -4.7362833
92 -4.652965 -1.1543642 0.70853347 4.309528 3.20468 -1.2977065 0.6502482 0.2869871 0.40366992 -12.287754 1.4536139 6.2319393 1.3040501 0.5191446 1.1909317 15.479136 2.3193192 8.3479805 -6.6731005 0.41936842 -4.2044935 11.26237 14.455239 -2.9426808 -6.822958 6.5851316 -3.2920804 4.14434 6.6439576 -8.921874 -0.25258785 -2.7156932 -0.85249275 2.8439007 -1.1654149 9.2433815 8.596095 -1.353104 -7.24831 -12.329046 0.6297924 5.3414297 -2.5187645 1.493978 -4.8787165 -0.0012640366 -0.56381613 5.2307944 -4.460067 0.88448703 6.496774 -4.4503417
39 -3.0010471 -2.072255 -0.5666399 2.782124 4.11475 0.10077493 -1.2808601 0.29536903 2.2959876 -4.0468965 1.4868399 4.394656 -1.6617725 -0.44714868 -0.03890415 11.030199 5.4866166 6.8602767 -3.147881 2.1681466 -4.6428123 4.417749 13.075316 -2.4949665 -9.587869 5.376847 -3.1326156 6.1274343 5.7910957 -9.452425 -0.007720538 -3.088711 -1.2575161 -0.54315263 0.33034068 3.7062867 5.744812 -0.3223952 -4.390819 -11.998843 -0.7685199 3.1404626 -4.02481 3.8522127 -1.8658413 -1.0719701 -0.3124452 2.390384 -2.037494 1.6350582 2.3468034 -4.9789925
7 0.18639508 0.4590179 -0.17294247 0.30343193 -0.26042724 -0.054078314 -0.60998744 -0.23355743 0.02638888 -0.9454559 0.08741636 0.18301527 -0.8959732 0.3443353 -0.0070755403 -0.36157292 -0.4688764 0.8758507 0.3156662 -0.39085114 -0.07555166 -0.12931153 0.11453822 -0.3298859 -0.5508037 -0.28685918 -0.7684483 0.4069519 -0.35045823 0.06271578 -0.6160744 0.15869114 0.1283547 0.5740177 -0.36393026 -0.071863756 0.06603481 0.17718202 -0.19507973 0.8063223 0.983999 -0.29554942 -0.38398913 -0.9797334 -0.46754515 -0.7080941 0.17918256 -0.3920004 0.87831044 0.12225436 0.29144266 -0.45208108
83 0.46864045 0.42496926 -0.11031961 0.0443841 -0.44079792 0.14254306 -0.8080203 -0.04952493 -0.3273321 -1.3203279 0.13750345 -0.08738369 -0.67472816 0.21673478 0.13090467 -0.4289023 -0.25338435 0.941026 0.35997844 0.07033962 -0.08812433 -0.41156092 -0.09988452 -0.29618913 -0.45430088 -0.18453172 -0.6962303 0.08143854 -0.18691887 -0.32035252 -0.40098137 0.29292023 -0.29696319 0.5035776 -0.22701475 -0.20856348 -0.05433159 0.3513795 -0.64090186 0.49349126 0.721195 0.17656063 -0.64527255 -0.5327539 -0.4139079 -0.24753602 0.47245744 -0.23215336 0.6002946 0.05621173 0.384535 -0.42146966
129 0.25658792 -0.25031137 -0.33200514 -0.5481294 -0.5080098 -0.38955075 -0.51305306 -0.046810634 0.9766103 -0.4604965 -0.49755898 0.0255509 0.19600497 -0.22676134 -0.44488928 -0.27335107 -0.3928421 0.6913403 -0.4678574 0.10823016 0.79427785 -0.10724163 0.056043528 0.16212891 -0.5719944 -0.3973977 -1.0877868 -0.53548306 0.3873841 -0.11068656 -0.13100408 0.5797426 -0.5806023 0.160208 -0.08609561 -0.29619482 0.031050008 0.26887053 -0.34932336 0.38049957 0.6825427 -0.26643378 -0.5892307 -0.023725798 -0.20350298 0.045299448 0.37877214 -0.49691686 0.36099166 0.65147364 0.18925838 -0.81976044
143 0.35801908 -0.39298287 -0.4455488 -0.50254244 -0.4962951 -0.36618865 -0.4443789 0.10262344 0.88058305 -0.46752733 -0.35838193 -0.028908407 0.14962536 -0.29632002 -0.25965798 -0.050661422 -0.33450744 0.68899375 -0.48233965 0.18518275 0.8844916 0.004630724 0.1554082 0.14672975 -0.51657945 -0.5012717 -1.122039 -0.39762616 0.35315216 -0.1514996 -0.07327917 0.5640343 -0.6360375 0.047773633 -0.26497453 -0.28954226 -0.08400094 0.124468885 -0.32275787 0.1949114 0.70145303 -0.33833146 -0.53214216 -0.09341984 0.008797726 0.11121136 0.3093817 -0.50523865 0.25732338 0.73457325 0.36193985 -0.75997406
74 0.53611064 0.3802709 -0.22417787 0.11748602 -0.49450096 0.22679138 -0.7109946 -0.13076009 -0.3226574 -1.1373571 0.17999904 -0.010975473 -0.68120855 0.2598089 0.031648662 -0.32008553 -0.38896322 0.85432214 0.33547214 -0.095855296 0.00058405066 -0.42414528 0.06517288 -0.1981101 -0.39438552 -0.18932563 -0.7522349 -0.040000964 -0.19363546 -0.28438574 -0.4832021 0.31522223 -0.48407257 0.42575637 -0.27956432 -0.1893089 -0.040102605 0.6333841 -0.59543806 0.6910876 0.75943536 0.16145818 -0.66912264 -0.48676845 -0.29916677 -0.26785716 0.43951902 -0.27980095 0.6062863 0.2406612 0.30021673 -0.41253316
177 -0.43701148 -0.31945267 0.29332092 0.2134387 0.15325488 0.23624179 -0.45844164 0.26251096 0.24711289 -0.47341007 0.33220142 0.6542622 0.33099324 0.13307488 0.11057858 0.28785762 -0.49958274 0.6570323 -0.46267942 0.31567597 0.08016125 0.13328052 -0.0965632 -0.91057897 -1.140524 -1.206283 -0.07877258 0.2739539 -0.065974645 -0.80688775 -0.22643755 0.1267363 -0.3866451 0.3379243 -0.007095292 0.3769707 0.14308606 0.5150478 0.36077023 0.1575453 0.32155168 0.10268431 -0.30522284 0.38981482 0.37994918 -0.49920905 0.21677466 -0.36552808 0.5894576 -0.3099094 0.056281816 0.67257226
111 -0.48143235 -0.32682863 0.3495039 0.08891608 0.11986166 0.29564577 -0.44503987 0.07679298 0.1886513 -0.5634094 0.29551026 0.71843594 0.22236428 0.17561366 0.14646222 0.48126534 -0.44508687 0.504024 -0.4139668 0.27113155 0.23908061 0.05313769 0.0011960588 -0.89242136 -1.1616873 -1.1953449 -0.121630184 0.116687156 0.025995638 -0.8928003 -0.36935684 0.14530465 -0.41128513 0.39015162 -0.08281391 0.2300906 0.19326249 0.48531964 0.47217673 0.21929651 0.27798262 0.086244315 -0.35669693 0.37131986 0.3428135 -0.6030635 0.096884765 -0.36353984 0.6231673 -0.216221 0.042917937 0.6783977
50 0.2643686 0.24661474 0.24645641 -0.32992116 0.12824589 -0.9266754 -0.38190767 0.83154094 -0.06269564 -0.5983132 -0.1683165 -0.6298866 -0.10826034 0.6452429 0.096779585 -0.1555267 -0.24458906 0.39770466 -0.98088294 0.20548159 -0.34923714 1.0144119 0.47434983 -0.32142594 -0.39463183 0.08219958 0.063245356 -0.7538783 -0.75329673 0.23610893 0.12752381 -0.41747287 0.127299 0.38673955 -0.8481087 -0.042266753 -0.28408605 0.7635451 0.23040825 0.34060815 0.27332154 -1.4075487 -0.37215537 0.025015542 0.8987294 0.034072466 -0.17437483 -0.7052063 0.1737185 0.14383675 -0.019837195 -0.24512032
213 -0.49137715 -0.23959069 0.42561182 0.1379892 0.050589744 0.25399143 -0.46660638 0.1844322 0.23743083 -0.5156918 0.27658448 0.64831537 0.20823987 0.14258955 0.1132 0.33056456 -0.40498453 0.7044626 -0.58578235 0.2349266 0.039472826 0.031762287 -0.16910674 -0.7923727 -1.1724787 -1.157684 -0.10544609 0.26012582 0.08443237 -0.6811375 -0.35625985 0.19198938 -0.47370443 0.33107147 -0.021083284 0.4318389 0.10509353 0.4722565 0.5881218 0.11178425 0.37999737 0.113453165 -0.2799845 0.36786476 0.41963154 -0.37137026 0.032206938 -0.3014845 0.71351117 -0.23800328 0.013067741 0.60363746
57 -0.5423906 -0.16341911 0.42084742 0.09896565 0.24086045 0.28931928 -0.49148792 0.19512594 0.24843188 -0.5585717 0.112958 0.72432727 0.24923274 0.2159874 0.22205079 0.368933 -0.44105738 0.7624445 -0.59772265 0.18936245 0.3542135 0.10670327 0.031636238 -0.79623437 -1.0642312 -1.1194044 -0.08522936 0.219491 0.22543585 -0.6288665 -0.37893096 0.07690526 -0.40193 0.25898942 0.04566834 0.45471618 0.2176862 0.53135943 0.4227564 0.09674225 0.3615478 0.0017429867 -0.31949168 0.41345692 0.3754346 -0.49816537 0.12683058 -0.35256624 0.6517303 -0.23472576 0.086144924 0.66921055
291 0.09202449 -1.1713094 -0.7807271 -0.51114404 -0.29687124 -0.8046456 -0.41002777 0.32144678 0.7479414 -0.8455988 0.414934 0.32386398 -0.56092745 -1.3522396 -0.38471186 0.13561651 -0.67547834 0.19175501 -0.06751084 0.32254797 0.59708774 0.5719537 0.38434193 0.6905526 -0.5185257 0.3369775 -0.19459511 -0.012878011 -0.09936961 -0.023479266 0.24572851 0.564135 -0.12189117 -0.33570296 -0.4699148 -0.1286737 0.22698303 0.39363667 0.41226196 -0.02570718 -0.062129643 0.25030717 -0.11914093 -0.36961016 0.38446018 -0.5881879 0.45321593 -0.006536099 0.32023183 -0.106407754 -0.014107293 -0.8402653
211 -0.5353915 -0.34031552 0.2656732 0.25419065 0.056899667 0.24901332 -0.38176343 0.26422486 0.30014867 -0.6600484 0.31294727 0.5487378 0.32343256 0.13197331 0.051796444 0.45626688 -0.39040792 0.6545561 -0.5057744 0.24080744 0.18491118 0.058652464 0.0026596256 -0.9923001 -1.1032137 -1.1609725 -0.020353366 0.21703292 0.059616197 -0.8026155 -0.30957234 0.13025856 -0.6001951 0.23963429 -0.12503612 0.29564187 0.17702743 0.4411725 0.36978278 0.01172721 0.3798682 0.027239554 -0.27367252 0.51462245 0.392536 -0.50947136 0.06700646 -0.26268196 0.68918115 -0.3028018 0.20874019 0.66879994
71 0.38394657 -0.2900559 -0.41770166 -0.5736163 -0.36840668 -0.5365421 -0.42652214 0.038191877 0.95020235 -0.49186173 -0.28588015 -0.033761404 0.12965663 -0.4719945 -0.38533685 -0.05958887 -0.31213868 0.6593459 -0.5425378 0.4143567 0.6911028 0.031447433 0.114768185 0.053811885 -0.67696625 -0.3908212 -0.9766475 -0.33827597 0.45718482 0.07722738 0.019573739 0.7638284 -0.45240802 0.11003158 -0.2554084 -0.22620665 -0.046257623 0.08795554 -0.24280438 0.0363987 0.58463895 -0.18003719 -0.5210975 -0.08005691 -0.0899111 0.12450385 0.31105635 -0.3813896 0.38652298 0.67602974 0.27275804 -0.7929958
174 -0.5926181 -0.26309466 0.46605796 0.12095217 0.1851081 0.3323295 -0.53888345 0.22253224 0.16902657 -0.46193492 0.2820009 0.81578064 0.10634487 0.1457785 0.15057035 0.18626362 -0.51189744 0.71201956 -0.5619937 0.20951247 0.29215106 0.09708271 -0.09175026 -0.87140805 -1.0526055 -0.9806066 -0.092967436 0.17075524 0.14675888 -0.79936844 -0.3996981 0.15975909 -0.43107337 0.4280373 -0.1268188 0.44455904 0.048419088 0.38311642 0.45382056 0.24288617 0.27138323 -0.09648029 -0.35914996 0.34366235 0.3275316 -0.35839316 0.08325486 -0.31318572 0.70888674 -0.15253963 -0.04956148 0.79054713
137 -0.61354417 -0.2877277 0.41796264 0.106938206 0.19943748 0.35850245 -0.5030395 0.15004574 0.21206374 -0.46811357 0.32545155 0.86689866 0.09140056 0.27195027 0.20368473 0.25595078 -0.4143232 0.7457215 -0.5670279 0.32409307 0.18548693 0.08468424 -0.08841821 -0.83466274 -1.0015069 -1.0184251 -0.07267828 0.121000424 0.10969661 -0.7917015 -0.3542945 0.13163356 -0.3785346 0.4860295 -0.03794545 0.4050223 0.04474175 0.5137384 0.37203825 0.18470031 0.41453242 -0.11809817 -0.14198755 0.48133054 0.33400834 -0.36775017 0.0052091405 -0.3176283 0.7027092 -0.07376519 -0.14702593 0.55109525
29 0.40633327 -0.3956351 -0.57527775 -0.62151176 -0.47895664 -0.508526 -0.41883206 -0.01799081 0.9487335 -0.34203753 -0.19611298 -0.027233373 -0.053367987 -0.40027532 -0.31547552 0.021764424 -0.29890236 0.69043225 -0.4688604 0.24370047 0.68099904 0.12925917 0.06769746 0.012485234 -0.6171405 -0.2779447 -1.0069944 -0.36925545 0.33740133 -0.20969087 -0.024790667 0.7314398 -0.4708914 -0.0527971 -0.21532096 -0.38312554 -0.034101516 0.2156849 -0.22475308 0.119532116 0.6382189 -0.21998514 -0.41966105 0.06282692 -0.020848755 0.052018344 0.2935695 -0.48451552 0.34201282 0.6748394 0.20102426 -0.75028443
224 -0.04041759 -0.5130767 -0.53020996 -0.24357225 0.31873676 -0.055421736 -0.053745024 -0.7104583 0.53502965 -1.1106219 0.1641865 1.066112 -0.36078784 0.07901579 0.3540805 -0.36594173 -0.38204765 0.16399577 -0.9767551 0.32831964 -0.25205272 -0.07123433 0.23173279 0.55770975 -0.017735237 0.5909117 0.23319568 1.3146843 -0.30346563 -0.50696677 0.41822836 -0.04484374 -0.14088593 0.8104081 0.15302044 -0.14412628 -0.12863009 0.397758 -0.4061807 0.023170298 -0.39251518 -0.07242942 0.10025222 0.17839138 0.5418594 -0.25508258 0.06484533 -0.72761256 0.33994275 -0.37219465 0.3847029 0.38841718
127 0.031131238 0.41870353 -0.21947521 0.06545575 0.10508097 -0.10235594 -0.9826311 0.09332105 0.4566413 -0.92735314 0.3056627 -0.039133273 -0.77874094 0.28459197 0.007455984 -0.067109205 -0.41504058 0.8325836 -0.1328934 -0.3041027 -0.13579743 -0.1250595 0.26295844 -0.32678893 -0.24878515 -0.02445189 -0.54699045 0.1910248 -0.6419592 -0.48767447 -0.6447357 -0.056208663 0.11856798 0.43208215 -0.45541432 -0.0065689473 -0.21366008 0.22741425 -0.12979402 0.8449262 1.0113207 0.20958197 -0.30040538 -1.018596 -0.7072726 -0.81509495 -0.105454415 0.0056779226 1.0990491 -0.031050256 0.35565236 -0.20990719
108 -0.047499485 0.34953105 -0.18556206 0.13079455 0.13604373 -0.18974888 -1.0789077 0.069583155 0.5038501 -0.75860685 0.3114965 -0.027309138 -0.74905705 0.29345202 0.10250602 -0.17832196 -0.43921024 0.9124136 0.06597515 -0.34411362 -0.18711612 -0.028476212 0.11935759 -0.340814 -0.37174073 0.053828273 -0.6599554 0.17013583 -0.6463638 -0.37911054 -0.56310916 -0.111790106 0.22846082 0.51562816 -0.4336236 -0.04861024 -0.2785442 0.3251445 -0.26889196 0.74921477 0.7935904 0.254547 -0.22794986 -1.0202996 -0.62881076 -0.7447854 0.07231021 -0.028454347 1.1508664 -0.10389237 0.5313755 -0.15769614
32 -0.8753854 0.03989953 -0.5066893 0.1400838 0.38917905 0.41301152 -0.5906451 0.13635254 0.78862345 -0.85530305 -0.72621965 -0.24115491 0.38452408 0.05794225 -0.07887375 0.16552699 0.18097897 0.99058807 -0.277629 -0.13367836 0.01190293 -0.43731016 0.09018687 -0.61306375 -0.4566906 0.57602394 -0.3688977 -0.0915559 -0.08102737 0.1552128 -0.4057164 -0.06463454 -0.26047987 0.43858165 -0.22796187 -0.6773996 -1.1092038 0.9288542 0.52131975 0.36811873 1.064327 0.0027173173 -0.13173096 -1.0610112 -0.101689935 -0.64483786 0.28830886 -0.48353633 0.6078443 0.09371136 0.48491627 -0.2476973
157 0.113362834 -0.48413616 -0.58141494 -0.17685899 0.2832179 -0.052113324 -0.079314396 -0.69005406 0.5178954 -1.06757 0.13180915 1.1068261 -0.42738888 0.093391426 0.3466915 -0.2096916 -0.46092442 0.17750973 -0.95958817 0.38834473 -0.27867526 -0.08726462 0.22587413 0.6593407 0.079500996 0.6721664 0.20135027 1.3063043 -0.22816962 -0.4369514 0.25681272 -0.16935085 -0.1352192 0.84219664 0.046029396 -0.0914409 -0.17005685 0.43022212 -0.33554545 0.04540894 -0.4459368 -0.13982812 0.17319098 0.1944541 0.56171376 -0.23653807 0.19344209 -0.8595847 0.30892736 -0.45267627 0.48513657 0.37875342
85 -0.82439977 0.01912806 -0.51002157 0.2168294 0.2491074 0.23520286 -0.6231102 0.14738247 0.8299715 -0.5978459 -0.61114645 -0.20481768 0.013248548 0.011343631 -0.35873342 0.06973844 0.11176381 0.91092026 -0.32968515 -0.40604183 -0.036603987 -0.38733372 0.05474752 -0.4786798 -0.38063234 0.47454482 -0.35029542 -0.1284002 -0.0059952443 -0.028473305 -0.25877112 -0.055271056 -0.50304526 0.3947301 -0.492918 -0.7460168 -1.0245086 1.0441808 0.25175428 0.50332206 0.9560657 0.0071868296 -0.17588124 -1.0888904 -0.13718551 -0.5080818 0.25275636 -0.4499446 0.57231754 0.2712693 0.48188758 -0.08080955
183 0.13504496 -0.45252362 -0.5190846 -0.21040566 0.33308366 0.039453242 0.050740875 -0.7337876 0.5866271 -1.0761548 0.24947484 1.0943933 -0.43284336 0.022265792 0.31468582 -0.352996 -0.53017867 0.20521036 -1.0498023 0.37846473 -0.37427285 -0.12131863 0.14821076 0.63118285 0.028275473 0.79493535 0.20332098 1.3048693 -0.3148685 -0.47281855 0.4281786 -0.1162345 -0.24662171 0.8087149 0.11143218 -0.1315375 -0.17631847 0.47709253 -0.26748073 -5.5510085e-05 -0.36460093 -0.11790085 0.18431441 0.20786531 0.5302234 -0.20562537 0.1619802 -0.71216553 0.3412069 -0.3104767 0.61599165 0.3471783
121 -0.1370585 -0.11381805 0.3299591 -0.49546808 -0.2761621 0.60135233 -0.4202611 0.90330356 0.6537643 -0.500016 -0.08520512 0.553816 0.6556748 0.27089837 0.19377251 -0.05125052 0.7504578 -0.27864522 0.03677174 -0.11231493 -0.67440325 -0.09901625 0.7206254 -0.94540405 -0.02736535 -1.1018237 0.17267367 -0.08317792 -0.02962452 -0.6261787 0.036133647 0.324328 -0.09525051 0.22695066 -0.2635067 -0.25582603 0.37344387 0.4334814 0.77542067 0.6481339 -0.19099723 -0.17375755 -0.45345443 0.59955007 0.16393875 -0.035677254 0.010733702 -0.30838427 0.69097525 -0.1823117 0.5092725 -0.27750197
90 -0.46037078 -0.43164468 0.438026 -0.0008963959 0.17195188 0.33517325 -0.3676201 -0.04498562 0.19129078 -0.40390182 0.024110686 0.8161713 0.18231486 0.3287681 0.41200656 0.21995121 -0.5675845 0.74950653 -0.62517697 0.23286214 0.33991584 0.13014315 -0.10439941 -0.922454 -0.8865415 -1.073803 -0.011856078 0.23054582 -0.049483564 -0.7702538 -0.4352662 0.2557111 -0.5282326 0.53527004 -0.14872889 0.37295467 0.09580061 0.31136414 0.47595534 0.1611005 0.35124156 -0.0741711 -0.20550598 0.4572336 0.23079577 -0.38423297 0.17359968 -0.3930437 0.741151 -0.09415918 0.10995168 0.58681464
80 -0.1284597 0.17577446 -0.59043944 -0.09808496 0.49141163 -0.30869904 -0.80810505 0.7754828 0.50356704 -0.5366387 -0.27214724 0.617612 0.37536114 0.30496046 0.65664196 -0.46222773 -0.13072324 0.9469684 -0.009328872 -0.7733426 0.50133467 0.0972718 -0.23771058 -0.24308798 0.00024114278 0.01655699 0.17576762 0.39060453 0.5503418 -0.29563364 -0.1009733 -0.15204422 -0.19775285 0.5612156 0.5131557 -0.5770202 -1.0333322 0.2423722 0.78363377 0.5313233 0.3837991 0.3775303 -0.16505012 -0.09472983 1.0592768 -0.6077486 0.046972383 0.44436437 1.1501745 0.42382696 0.645572 -0.5665029
31 -0.21683554 -0.16200116 0.33340326 -0.41000363 -0.39546075 0.5959886 -0.62171763 1.0313703 0.653766 -0.40477112 -0.0062085167 0.4195685 0.5734161 0.39673573 0.17475386 -0.23289578 0.6862405 -0.24660628 -0.040172506 -0.18889883 -0.662742 -0.022509435 0.61821 -1.0579566 -0.023313627 -1.0965837 0.21979347 -0.059942476 -0.06238754 -0.6225014 0.05672099 0.35833323 -0.30010337 0.18470101 -0.32464573 -0.23542643 0.2665283 0.31307802 0.7389201 0.638654 -0.19664688 -0.18776223 -0.2891941 0.6530969 0.15048969 0.13848491 0.025843637 -0.14168634 0.7051183 -0.19245198 0.64201945 -0.2535629
96 0.036352135 0.34834284 -0.29632422 0.14305505 0.08077848 -0.12967482 -1.0360465 0.09023295 0.3943865 -0.82765156 0.19593802 0.0035848077 -0.73902035 0.30817243 0.113586664 -0.10847014 -0.56841284 0.8487453 0.039679892 -0.3912536 -0.22616993 -0.06844792 0.24502502 -0.40835848 -0.3201032 0.005298498 -0.73372424 0.19405116 -0.8552519 -0.30230224 -0.5819496 0.017230358 0.08872731 0.49920678 -0.40684053 0.0792541 -0.10885572 0.24788576 -0.26808763 0.64138305 0.80438465 0.25212106 -0.283268 -1.1092129 -0.594011 -0.7362613 0.025477309 0.030965833 1.048767 -0.09175242 0.47216302 -0.14655495
114 -0.68078333 0.12493418 -0.26095814 0.13664024 0.27023122 0.166643 -0.6105959 0.114737816 0.80376375 -0.7239989 -0.648626 -0.20618798 0.13861905 -0.20140043 -0.3143431 0.114299215 0.09511653 0.96401435 -0.43685636 -0.19923396 -0.023212682 -0.37209225 -0.09557501 -0.49146754 -0.48840937 0.4471512 -0.24614622 -0.03526901 0.017888606 0.035255365 -0.31595087 -0.16766575 -0.67227435 0.543664 -0.50920564 -0.65053827 -0.8998479 0.86630666 0.340961 0.39597386 1.0692134 -0.10060724 -0.00472462 -1.2465289 -0.20921126 -0.59158903 0.20833623 -0.47179586 0.5237201 0.2679774 0.528318 -0.09539409
146 0.04040202 0.23884536 -0.5718662 -0.0013248532 0.60099167 -0.28985578 -0.78501564 0.8339403 0.487724 -0.49274206 -0.27026242 0.5966568 0.35086116 0.30244794 0.71188307 -0.39196464 -0.17719807 0.8328695 -0.0017658892 -0.7662673 0.49669296 0.07652767 -0.21719186 -0.11431721 0.12712394 0.014196943 0.04777607 0.4064357 0.6470811 -0.23625594 -0.23046134 -0.24541874 -0.22029608 0.629391 0.37660274 -0.53691095 -0.9708373 0.31941628 0.7940569 0.5378433 0.49775156 0.34568557 -0.36091256 -0.15411958 1.1793339 -0.6190732 0.10633366 0.2183409 1.077744 0.41185004 0.47215393 -0.51666707
288 0.11491267 -1.0702465 -0.625491 -0.46705234 -0.26672128 -0.80381644 -0.45106572 0.08551524 0.89857584 -0.64355946 0.38692388 0.23723106 -0.33655065 -1.0292909 -0.23671585 0.16121301 -0.4860812 0.31078255 -0.041985214 0.38999647 0.68983006 0.60546005 0.398722 0.576676 -0.5207032 0.051585153 -0.3399386 0.1881219 0.09876543 -0.06917519 0.2129983 0.5709368 -0.14633329 -0.27400193 -0.42490363 -0.12816611 0.2404352 0.3194592 0.1657419 0.104472734 0.055843856 0.02702594 -0.19679692 -0.36558643 0.35713294 -0.22078545 0.39449525 -0.12908208 0.38519984 0.011319214 -0.091326356 -0.8156388
106 0.033931 0.32134062 -0.22774264 0.0013771481 -0.016326603 -0.19668429 -0.88736814 0.13296771 0.34204394 -0.83144635 0.32249343 0.06583483 -0.7855718 0.33964595 0.0889256 -0.10643897 -0.3927529 0.7321347 0.13521916 -0.3274237 -0.21739346 0.05195469 0.20130937 -0.43763128 -0.33708325 0.048671473 -0.72235245 0.16960353 -0.59243584 -0.27127272 -0.58522403 0.11028562 0.1623822 0.5614452 -0.35825032 -0.075583756 -0.16241619 0.28525963 -0.26770687 0.7998174 0.84313995 0.3369329 -0.4119899 -1.0885463 -0.679259 -0.866219 0.09834661 -0.14910144 1.1291112 -0.06805573 0.49807966 -0.024342692
293 -0.021041725 -0.8510468 -0.49457267 -0.5301986 -0.11562265 -1.048494 -0.51815474 0.18888679 0.7291258 -0.353745 0.23420867 0.17444995 -0.41975966 -0.66418725 -0.2637369 0.43107274 -0.29783103 0.42905116 -0.15261541 0.26061067 0.87518436 0.40797582 0.43883148 0.3226602 -0.5088454 -0.06345057 -0.5720884 -0.07235983 0.26313758 -0.16041765 0.18354718 0.72953206 -0.4507063 0.093485735 -0.085665226 -0.26816267 0.23906234 0.27832407 -0.0054030768 0.062658414 0.107699975 -0.07986244 -0.3778572 -0.28692365 0.27375612 -0.16906406 0.11160914 -0.1782578 0.15335459 0.08456068 0.041541506 -0.8818439
194 -0.020898897 -0.7669251 -0.5155854 -0.62253624 -0.16367903 -0.92401254 -0.4451099 0.16508938 0.7498704 -0.3527025 0.2987656 0.23627132 -0.4081384 -0.7321453 -0.29236847 0.49002138 -0.23870535 0.5179841 -0.21756601 0.2936816 0.79021704 0.40841 0.3747831 0.30700654 -0.5054641 -0.05657812 -0.65475434 -0.11330231 0.28981286 -0.086795874 0.12878393 0.67682606 -0.50230086 -0.016186807 0.022135383 -0.21304406 0.20380422 0.23441105 0.09718248 0.10288573 0.18355116 -0.17219648 -0.3908325 -0.31115896 0.35972294 -0.08336787 0.06785125 -0.11214182 0.30238172 0.029653585 0.041753475 -0.9465267
294 0.08700715 -0.79407644 -0.572754 -0.536174 -0.116873495 -0.99724114 -0.5483273 0.2377277 0.81050694 -0.2680194 0.26673448 0.26703754 -0.40673205 -0.6862262 -0.26491973 0.46979898 -0.22982976 0.51669234 -0.2762219 0.2558776 0.7387981 0.38262466 0.44503948 0.16711338 -0.54207116 -0.09474595 -0.5830117 -0.11039528 0.3637258 -0.14040643 0.19991334 0.68684435 -0.45743427 0.0328259 -0.008037922 -0.34442532 0.3054611 0.18978262 -0.049789745 0.28042364 0.1010944 -0.09955525 -0.31773907 -0.33576563 0.3355344 -0.08857378 0.19649634 -0.21770546 0.10370216 0.09892817 -0.08993088 -0.87213707
97 -0.04688767 0.4961542 0.33390945 -0.37485695 0.09334778 -0.37511015 -0.05735569 0.25458786 0.118867084 -0.015508429 -0.28957152 0.30208758 0.090293474 0.44745207 -0.012709644 -0.585011 0.14628457 -0.55574644 -0.26469335 0.102891356 -0.48362252 0.19634193 -0.06737948 -0.48993862 -0.06649392 -0.25933653 -0.39687544 0.25034082 -0.4815012 -0.0035187358 -0.776101 0.17877899 -0.44109672 -0.44603258 0.010579079 -0.9423895 -0.14808643 0.7296129 0.8539224 -0.15881585 -0.22332042 -0.94882786 0.0121996775 -0.047142845 0.5312069 -0.25311816 0.8582355 -0.106549285 0.022161843 -0.16951354 0.43950883 -0.59666175
164 0.12541756 0.7867272 0.7992659 -0.8465949 0.13051865 -0.34491286 -0.21754934 0.2045403 -0.07506063 -0.85126346 -0.6122131 0.053648014 0.2629894 0.44727913 0.257664 -0.50973976 0.28832945 -0.26083338 -0.27084443 0.0211179 0.09163706 0.7926989 -0.17480381 -0.2443097 -0.4290273 0.020300355 -0.19049756 -0.0051784925 -0.443127 0.2767395 0.2502235 -0.08744851 -0.1405212 0.0907501 -0.9632801 -0.61788374 0.5801662 1.0139998 0.30866793 0.07715472 -0.5352553 -0.5366445 -0.34456766 -0.33537403 1.0048314 -0.025123773 0.56895596 -0.13300225 0.08646022 0.009895965 0.42569143 0.04654899
10 0.1392938 0.111406155 0.25167164 -0.41271967 -0.32515272 -0.885062 -0.3486388 0.5646177 -0.03907517 -0.60314375 0.43878 -0.65600145 0.07274821 0.6733612 0.42783904 -0.0005904947 0.21838215 0.23549843 -0.84674644 0.18620206 -0.8723303 0.7103248 0.6872117 -0.093835704 -0.7591182 0.33624205 -0.58199227 -0.8026081 -0.42362294 -0.12110334 0.19093826 -0.41660953 -0.06694939 0.3865383 -1.2649984 0.10106007 -0.33665407 0.7930863 0.036643833 0.204371 0.26012522 -1.1189061 -0.18233427 0.06709824 1.2229767 -0.117243156 -0.40138152 -0.6131048 0.302965 -0.21270801 -0.0035089552 -0.13476385
254 0.11886378 0.3347555 0.09721359 -0.6651606 0.3237119 -0.43433774 -0.28541112 0.4146109 -0.32911706 -0.29431057 -0.011838039 -0.113365464 0.22432522 0.40623134 -0.13121192 -0.76450974 0.1713753 -0.18951285 -0.06817601 -0.214304 -0.35554782 -0.07174981 0.5755749 -0.10551811 0.04590761 -0.4719035 -0.44909364 0.19970198 0.0053792233 -0.318089 -0.51078236 0.84476775 -0.3997291 0.43294623 -0.47555715 -0.61171836 0.16545203 0.71404743 0.6113445 0.07334293 -0.28041035 -0.66991425 0.074373305 0.25145477 -0.01828562 0.23514935 0.6220857 0.53934747 0.2169249 0.06716401 -0.10252008 -0.15518363
144 -0.5698207 0.18940306 -0.3420458 0.19306366 0.18550682 0.13468751 -0.5656771 0.025084956 0.61819196 -0.71595955 -0.57375884 -0.27655464 0.20495163 -0.288577 -0.39669204 0.1827879 0.1003821 0.99423933 -0.42789146 -0.3618045 -0.29626277 -0.42523932 0.017794127 -0.50177276 -0.41149285 0.74008626 -0.42593294 -0.087520055 -0.04648165 -0.03150367 -0.2143495 -0.06509932 -0.72661906 0.5742752 -0.32492098 -0.7482322 -0.76897746 1.0306553 0.32200342 0.5085029 0.83227 -0.04188485 -0.120612994 -1.0617857 -0.24341957 -0.5797368 0.20283422 -0.41983873 0.59449035 0.38035473 0.6247524 -0.1656971
102 -0.2514416 0.21692094 0.5533911 -0.41267192 -0.001112143 -0.37651294 -0.1435802 -0.10658507 0.04910744 -0.13047267 -0.5217445 0.30222416 -0.12921052 0.38654333 -0.06159031 -0.9067187 0.22877882 -0.6203953 0.10634476 0.13542624 -0.42328706 0.35362405 0.17404681 -0.5861955 -0.3941876 -0.2023363 0.01662098 0.35996553 -0.2619438 0.36419103 -0.78153825 0.11579879 -0.52834755 -0.5377927 -0.050539527 -0.6764471 0.17646265 0.7897436 0.44929963 -0.17058982 -0.48374036 -0.84721935 0.001339225 -0.39432573 0.9147831 -0.28542668 1.0800403 0.1849491 0.17696351 0.089077406 0.45903045 -0.4997021
82 -0.11146246 -0.118807554 0.3992327 -0.482729 -0.20698468 0.68722826 -0.59317315 0.95115954 0.38283825 -0.3949652 -0.076361544 0.5137821 0.52257925 0.14481 0.21026535 0.086431764 0.7171233 -0.48101252 0.17162856 0.16865768 -0.6855967 0.116570294 0.50191414 -1.016658 -0.32138875 -1.0873417 0.1684016 0.12367186 0.25427428 -0.5914953 0.19298872 0.26910868 -0.11029988 0.10357316 -0.2671736 -0.14073403 0.315317 0.5442418 0.6601084 0.3475369 -0.21020699 -0.51804 -0.3200806 0.45237175 0.1842885 -0.029218554 0.09473908 -0.033775877 0.6986897 -0.060283203 0.522965 -0.18005319
214 -0.4072205 -0.47149083 0.55639666 -0.00963182 0.29308254 0.36739245 -0.5834635 0.11712114 0.062199812 -0.44414058 -0.025242733 0.78793734 0.1167849 0.33095235 0.49865493 0.34740767 -0.4030036 0.6523378 -0.4114729 0.22182904 0.37794125 0.21728581 -0.21806546 -0.8997492 -0.8774305 -1.0148516 -0.05431414 0.14746453 0.036216382 -0.71561784 -0.5232856 0.2110497 -0.4263682 0.5919958 0.043228205 0.36781085 -0.067243434 0.55313075 0.2349943 0.09682811 0.120286375 0.16477723 -0.14462103 0.51663107 0.38059425 -0.44199863 0.16343808 -0.50223756 0.62090695 -0.14817047 0.16187412 0.4388504
176 -0.42117688 -0.5832229 0.050338212 0.616896 -0.24048035 0.2129157 -0.29008076 0.8543254 0.38966927 -0.56439006 -0.025105394 0.74364966 0.39719045 0.0036068845 -0.15032934 0.6643761 -0.0828942 0.47012886 -0.104756095 -0.16517727 -0.046737734 -0.3697895 0.048652872 -1.0029919 -1.3030449 -0.84900004 0.10719324 0.23440972 -0.22821063 -0.85683966 -0.071135044 0.35797855 -0.62742716 -0.012334977 -0.26385924 0.34600735 0.5441762 0.51298666 0.39921173 0.45103213 0.22546585 -0.013624333 -0.5363547 0.45290515 0.382193 -0.3685295 0.15421964 -0.48804224 0.93431556 -0.46968803 0.3434175 0.5248691
292 0.08458155 -0.8387379 -0.45554057 -0.61980605 -0.11676543 -1.0030156 -0.42658132 0.25471783 0.68578553 -0.4568473 0.31469724 0.3229131 -0.4143831 -0.9728382 -0.34254813 0.3803883 -0.27304074 0.48160538 -0.1093172 0.21972717 0.8035579 0.3821741 0.37841386 0.30507886 -0.6216138 0.030309316 -0.4910575 -0.104792535 0.1885411 -0.20404732 0.19718578 0.7059034 -0.41076156 0.0058360477 -0.02673494 -0.3102739 0.1914251 0.19440992 0.11073487 0.17741019 0.076999165 -0.08948144 -0.32436138 -0.34461433 0.42589128 -0.27331987 0.042886633 -0.11568339 0.084753804 -0.009990027 -0.0076087993 -0.88018394
26 -0.21415481 -0.27205852 0.40675074 -0.48179 -0.1694072 0.58635765 -0.53489834 0.9524174 0.39952832 -0.48923707 -0.2677034 0.5048003 0.60839057 0.032927264 0.10158915 0.1344605 0.64701176 -0.46340227 0.062035304 0.14511101 -0.55724055 0.18271448 0.47761863 -0.97366494 -0.10613215 -1.26091 0.16807306 -0.039735 0.20484754 -0.5556869 -0.040643968 0.21548136 -0.17561659 0.19398297 -0.30027348 -0.1554554 0.34960374 0.4964226 0.5718732 0.423903 -0.39264792 -0.31553537 -0.39618206 0.36091095 0.023424486 -0.023087757 0.08039673 0.0046842424 0.63547057 0.0160672 0.68593794 -0.22467628
2 -0.058298495 0.54895294 0.32112837 -0.45506757 0.011344471 -0.20508973 -0.2588197 0.30007267 -0.059417307 -0.27176806 -0.18456724 0.39179048 -0.07626063 0.38113773 0.03170671 -0.619627 0.52831435 -0.42921618 -0.040001094 -0.038895126 -0.14441936 -0.33383742 0.46754193 -0.3277474 -0.04556536 -0.44598493 -0.14112772 0.37983978 -0.13609175 -0.2509477 -0.37627253 0.31233582 -0.47416455 0.29294872 -0.5151075 -0.9531929 0.23980282 0.55002385 0.7806134 0.057483833 -0.28379622 -0.82079643 -0.07188357 0.35393006 0.19780786 0.22442298 0.7323627 0.5024654 0.07186333 0.02012837 -0.10558941 -0.7597523
212 -0.38594598 -0.5119336 0.24581006 0.5952383 -0.20205727 0.215191 -0.37685534 0.8807666 0.31483975 -0.4614101 0.08037055 0.6341647 0.48446813 -0.06382856 -0.17706281 0.55738246 -0.16785514 0.50699985 -0.062124524 -0.017139638 -0.06910509 -0.38443694 0.19174188 -1.0604733 -1.3806812 -0.84025556 0.1764723 0.27868325 -0.16673023 -0.81598085 -0.13065839 0.20689283 -0.6316045 0.17164026 -0.32555917 0.45233953 0.4768852 0.44248208 0.28096846 0.30961743 0.17149436 0.029586142 -0.50040954 0.3121252 0.4033146 -0.35454708 0.015293647 -0.4985836 1.0162997 -0.34915978 0.39530554 0.4565404
27 -0.07036303 -0.91181403 -0.9143437 -0.4158948 -0.10725574 -0.8594078 -0.4549336 0.16315298 0.7589013 -0.7783581 0.29557148 0.51505846 -0.36953393 -1.1924956 -0.3268937 0.116652966 -0.60964406 0.22847824 0.12612277 0.2897318 0.51629275 0.5307518 0.3231496 0.66360503 -0.47038144 0.36508334 -0.41658702 0.102974996 0.101596154 -0.16584069 0.352682 0.6829192 -0.16130191 -0.35334033 -0.5305881 0.06708544 0.31885228 0.21374066 0.29075128 -0.011308732 0.008187455 -0.080157615 -0.44172645 -0.36124977 0.48157164 -0.2994271 0.37756684 -0.095419906 0.35978314 -0.14201203 -0.1992406 -0.6210571
289 -0.077973634 -0.83107257 -0.7212349 -0.59836763 -0.19178033 -0.97389066 -0.52728623 0.17057863 0.646187 -0.35893846 0.3097487 0.21981692 -0.539553 -0.85691637 -0.40341052 0.3031097 -0.36557713 0.35878596 -0.1910614 0.19387528 0.705334 0.35025272 0.29947343 0.36739475 -0.6065279 -0.052238785 -0.49878857 0.009236133 0.08754136 -0.09353337 0.31214103 0.68757504 -0.50621074 -0.0043173125 -0.075569406 -0.12385489 0.20302585 0.23869866 0.092430964 0.1449391 0.041067827 -0.08508041 -0.28606525 -0.33227 0.42339864 -0.19984604 0.061740983 -0.07618772 0.2528716 0.067729495 -0.07363681 -0.92852914
46 0.14941244 0.3321997 0.23230715 -0.3243827 -0.2704044 -0.8597619 -0.63491976 0.6811255 -0.09699177 -0.5473539 0.24407497 -0.589221 0.06682623 0.6787297 0.32366046 -0.18378705 0.12038546 0.44295582 -0.9260045 0.14422974 -0.72672045 0.9554999 0.6725632 -0.49594662 -0.71139646 0.3661107 -0.39238074 -0.8790076 -0.29586232 0.20315322 0.37174475 -0.3890552 0.11184586 0.4566938 -1.0720876 0.12838684 -0.2698336 0.6328317 0.28924385 0.19253899 0.20627642 -1.3172861 -0.1870562 0.09355722 1.0027131 0.12728728 -0.41321293 -0.7300901 0.2391381 -0.20903607 0.012689654 -0.23322244
313 -0.2532806 0.2152112 0.37477878 -0.33380306 -0.064017124 -0.32553455 -0.115488775 -0.12831374 0.119981326 -0.0072035613 -0.3516929 0.23270983 -0.06958168 0.5159065 -0.050271288 -0.7616637 0.40664673 -0.58834124 0.0054208213 0.23115315 -0.59290105 0.32426205 0.09692823 -0.48289818 -0.47735274 -0.15766986 -0.20590267 0.53280145 -0.28960815 0.36760643 -0.6818595 0.12555474 -0.7390237 -0.675324 -0.10834674 -0.6902324 0.1673545 0.87767744 0.5142022 -0.07048094 -0.54177684 -0.867414 0.05047515 -0.31894618 0.9043597 -0.23474996 0.993938 0.28266302 0.1919021 -0.07431789 0.6196513 -0.40034357
101 0.07252582 0.31783602 -0.17963903 -0.018719057 0.008551473 0.0014517452 -0.94350165 0.0026667123 0.31759617 -0.88517606 0.31083962 0.12277222 -0.8633626 0.36381227 -0.06650527 -0.19865504 -0.56301063 0.7699166 0.1883992 -0.25725964 -0.27803057 0.08446207 0.20991729 -0.41641095 -0.2698049 -0.0011599632 -0.8066978 0.18068515 -0.59826845 -0.26425937 -0.5663005 0.06577837 0.080109246 0.5494656 -0.45521343 0.17574935 -0.06483972 0.16553922 -0.118928224 0.70163745 0.7986087 0.25898227 -0.35231596 -1.1807151 -0.7120373 -0.76644915 -0.02278014 -0.024994463 1.0296259 -0.041310783 0.48869026 -0.19905132
36 -0.16205399 -0.06596591 -0.16357304 -0.68675596 0.33066046 0.24735391 -0.25122738 0.2061528 0.5128785 -0.47997668 -0.3859121 0.7069011 -0.25123107 0.11280615 0.5927394 0.19303183 -0.37257597 0.2803874 -0.19926734 0.2871671 -0.05422465 -0.09010198 -0.12975802 -0.7573251 -0.6319105 -0.16870292 -0.043891933 0.51677006 -0.2604197 -0.71175134 -0.21323012 -0.10704878 -0.12072216 0.6302029 0.116218664 0.26753807 -0.08441522 0.43423077 0.15356837 0.020946043 -0.41875574 0.2021634 -0.22897112 0.8081796 0.529121 -0.08312377 -0.58629525 -0.44321463 0.39986688 0.10024296 0.37352946 0.3968063
297 -0.014032506 -0.8020018 -0.60065764 -0.65644956 -0.12403727 -0.9517863 -0.44043094 0.2595986 0.7031416 -0.38153693 0.3035227 0.20885251 -0.5103121 -0.84189475 -0.26028505 0.34711838 -0.39524874 0.42283317 -0.10329077 0.12752944 0.75687766 0.5025054 0.29922193 0.40394765 -0.57806545 0.034664124 -0.48382068 -0.03950964 0.21975324 -0.12443438 0.27088726 0.7753955 -0.41011667 -0.031139296 -0.024626732 -0.1797211 0.21331932 0.29780114 0.12338166 0.059701297 -0.083605215 0.01166606 -0.40697506 -0.4205644 0.3273784 -0.25117233 0.09193496 -0.2501384 0.16429149 0.1140892 0.10397625 -0.79539406
238 0.08048896 -0.2831873 -0.049824703 -0.904485 -1.0315046 -0.45038718 -0.72552156 -0.0401707 0.9714802 -0.39819863 -0.85393196 -0.01307534 0.16998747 -0.013340597 -0.19140773 -0.42305452 -0.41321063 0.9952768 -0.0627145 -0.050345674 0.5461058 -0.36722803 0.11364521 0.025022883 -0.68407017 -0.46150607 -1.1287105 -0.4388107 0.41586268 -0.2714534 -0.13995995 0.49231312 -0.52311265 0.33773112 0.16588366 -0.5237513 0.13407224 0.17650409 -0.24615073 0.5912248 0.7595088 -0.0902608 -0.7833355 -0.42756402 -0.3782024 -0.22389214 0.4988114 -0.36013976 0.41386637 0.54326695 0.11291828 -0.66562706
88 0.46642873 0.95774657 -0.43608046 -0.691121 0.72535807 0.35044467 -1.0189219 0.89988106 0.4998714 -1.1189207 0.12260794 0.011009418 0.61597914 0.18323608 0.16644257 0.36276934 -0.08625238 0.3244948 0.736892 1.1389107 0.06977979 -0.52295446 0.21871082 -0.53018236 0.2878314 1.1268702 -0.016135605 -0.3878257 -0.07835218 -0.75989056 -0.6095832 0.48046353 -0.42074862 0.7620304 0.12407693 -0.8596654 0.45975676 0.7710202 0.06852163 0.22392082 -0.108236305 -0.6585306 0.4867251 -0.27918056 0.47378853 1.4991658 -0.23240738 -0.53152406 1.1464082 -0.43436772 -0.34268355 0.3044845
193 -0.3026924 0.29148433 -0.8271176 -1.1546448 0.3781241 -0.051777028 -0.70815176 0.6412523 0.0565075 -0.54058003 0.29218206 -0.43537396 0.5613479 -0.11520617 0.06726589 -0.9595511 0.16079432 0.20306012 -0.060491208 0.52195555 0.047514386 -0.26064032 0.8356626 0.0027896643 -0.012072104 0.16338815 -0.20772244 -0.024457088 0.041936498 -0.48076493 -0.77946836 0.2448809 -0.17764038 0.08580299 0.08990441 -1.0116619 0.31044254 0.6019383 0.5467583 0.49729508 -0.18005857 -0.6580772 -0.11099086 -0.43042383 -0.041936472 0.36165965 -0.07894881 -0.43424773 0.08610852 -0.36365625 -0.19769351 0.2717959
220 -0.15105566 0.11498017 -0.114830784 -0.33007285 0.3766586 0.3277515 -0.19390671 0.037059862 0.87704533 -0.7877333 -0.40727305 0.7292739 -0.44745502 0.3380199 0.7408066 0.23869176 -0.34443396 -0.12004448 -0.23657471 0.011066011 0.3811542 -0.29491562 0.5061854 -0.13724855 -0.3152241 0.046306614 0.1315151 0.9431715 -0.40922368 -0.38571337 0.4142376 0.12196622 -0.20432258 0.51768225 -0.03337179 0.35395172 -0.17011616 0.20318887 0.032177024 -0.19237186 -0.36387092 0.090114176 0.06230128 0.3783535 0.6554017 -0.4180378 -0.321053 -0.5176119 0.34622172 0.017289063 0.54650867 0.17474103
124 -0.26626554 -0.19907999 -0.14124274 -0.47457784 0.53483886 0.1975384 -0.36749148 0.20131762 0.34466416 -0.4805152 -0.16549471 0.63208795 -0.08181025 0.18734257 0.69199187 0.09497372 -0.22208299 0.44594976 -0.32438967 0.35711867 0.07513036 -0.142684 -0.28869206 -0.74927247 -0.725228 -0.4101405 0.1739522 0.59257585 -0.33178693 -0.6397512 -0.10483672 0.10313246 -0.29320452 0.7367279 0.0039479346 0.6202975 0.15090849 0.28999448 0.23617263 0.2095169 -0.14711185 -0.08573496 -0.15239994 0.8200016 0.31335938 -0.3522569 -0.4685875 -0.577688 0.2551848 0.21155025 0.36985052 0.17393346
222 -0.2711605 -0.031111384 -0.11686789 -0.39210513 0.35170537 0.37198716 -0.29549193 -0.00064251304 0.9357537 -0.8027618 -0.49473825 0.6787415 -0.4797084 0.2613752 0.5959456 -0.0021879144 -0.37984 -0.06758209 -0.3307808 0.15634033 0.2798051 -0.32841164 0.47150588 -0.29669434 -0.24927859 0.09429512 0.24183668 0.83090913 -0.3816664 -0.41265768 0.40714383 -0.0106908865 -0.35817203 0.57358706 -0.11993708 0.31690192 -0.27259597 0.091046944 -0.058014456 -0.2281263 -0.32964954 0.07908528 0.094694726 0.44208565 0.57252187 -0.23291159 -0.29364732 -0.43230596 0.37851432 -0.07884175 0.45195273 0.113242365
81 -0.45239082 0.75138795 -0.019109922 0.42401257 -0.087074436 0.11936652 -1.0409756 -0.43846434 0.6228515 -0.6139499 -0.594904 -0.43538296 -0.10286176 -0.506057 -0.14511894 0.19311447 0.42639294 0.7019252 -0.2743197 -0.5436563 -0.12876312 0.2088347 0.15142773 -0.5680178 -0.4837524 0.032354303 -0.60255945 -0.011805993 0.0523792 -0.15648839 -0.07764914 -0.017957343 -0.9902599 0.66291 -0.33959606 -0.8102358 -0.859595 0.8509998 0.28729168 0.32583103 0.6179421 0.050778404 -0.057788435 -1.3396915 -0.34197068 -0.39411783 0.12325172 -0.33925858 0.2403786 0.425768 0.65797025 -0.33596817
16 0.32644185 0.17669952 0.6165898 -0.36942962 -0.119382806 -0.5566422 -0.49878538 0.540357 -0.0779794 -0.4685969 0.20104755 -0.4437961 -0.17081851 0.72983754 0.5015188 -0.51192284 0.21134847 0.33148745 -0.5719681 0.62086606 -0.27211523 1.094894 0.7086338 -0.32328886 -0.6679884 0.22142799 -0.05946082 -0.7658434 -0.74150926 0.13881117 0.6565411 -0.015773494 -0.039924692 0.43873197 -1.4753767 -0.1710806 -0.0041933497 1.012563 0.28748497 0.23158854 -0.121553876 -0.5044536 -0.09731738 -0.00412367 0.95118207 0.09034824 -0.26671347 -0.3031241 0.25023955 -0.49747175 -0.4110518 -0.31578904
202 0.19600432 0.14465 -0.030352952 -0.97167563 0.6083405 0.73874295 -0.15266788 0.9529291 0.37504467 -0.6666285 0.05658314 -0.58874434 -0.09997551 -0.35090563 -0.0852721 -0.024403932 -0.30304044 -0.0822328 -0.19176283 -0.92061865 0.4141917 -0.15755014 0.044364873 -0.5926206 0.43043947 -0.23750718 -0.9300476 0.6145473 -0.25617737 -0.3410812 -0.15689506 0.66192675 -0.12375762 0.9061984 -0.21312156 -0.21350306 0.27715525 0.76494974 0.8679189 0.17444363 -0.25595814 -0.9403259 0.32905862 -0.0562192 -0.24735345 0.29012948 0.36279282 -0.38125086 0.8342732 -0.8776404 -0.13496025 -0.17056778
37 0.13670121 0.39510524 -0.45587265 -1.0008981 0.25183067 -0.16413097 -1.1000235 0.80481094 -0.13275473 -0.56216747 -0.0291073 -0.2798105 0.3730845 -0.05217766 0.023578834 -1.1291786 -0.046071455 0.2983153 0.13516113 0.34718046 0.36103612 -0.32983118 0.8698679 0.02184513 -0.5248408 0.30309996 0.027355658 0.14848939 0.17653655 -0.32077035 -0.7322046 0.34381866 0.01899813 0.13006486 0.17784482 -0.7311788 0.55270714 0.90717596 0.50984085 0.4797924 -0.29403365 -0.4361188 0.117180854 -0.21251912 -0.034032285 0.3651247 -0.111837916 -0.30904448 -0.021627003 -0.5991941 -0.42260557 0.29219034
187 0.001673228 0.17983721 -0.038081463 -0.40503472 0.5901865 0.30834 -0.2731522 0.05067351 0.9812051 -0.87485904 -0.55615824 0.74678874 -0.5407292 0.34352162 0.555265 0.030394778 -0.24700019 -0.105475575 -0.2677378 0.19120371 0.17210934 -0.27060294 0.2419749 -0.14563668 -0.25898007 0.16006896 0.21407501 0.9836437 -0.26714566 -0.417513 0.43992826 0.22782452 -0.31913245 0.5776204 -0.23064393 0.10647529 -0.1757643 0.10776081 0.0024005813 -0.27373445 -0.24321312 0.33181423 -0.046544414 0.52874374 0.62856156 -0.32075945 -0.34198672 -0.37980717 0.38540232 -0.037241697 0.4198869 0.4202505
318 0.06913273 0.2505816 -0.4333565 -1.1123885 0.39199698 -0.048533518 -0.85164213 0.5888382 -0.19415429 -0.34114802 0.016451972 -0.46815938 0.3840452 0.059390385 0.27422643 -1.3788173 0.04865192 0.05386275 -0.38537428 0.4667625 0.19758683 -0.35904387 0.7749283 0.60577357 -0.0075840764 -0.07755401 -0.59646547 0.06313328 0.239122 -0.34534448 -0.7609995 0.280199 -0.3582857 0.3588145 -0.24333021 -0.608077 0.2641734 0.5421202 0.51526695 0.3676887 -0.55460095 -0.7558122 0.1552871 -0.41526306 -0.006730649 0.111481875 0.0696467 -0.1279531 -0.051150974 0.10901806 -0.14478476 0.09911259
78 0.16394791 0.36027613 -0.50914735 -1.0286076 0.23353347 -0.16493377 -1.0001297 0.7867659 0.0025097919 -0.6140831 -0.023885956 -0.37651697 0.38686603 0.12970588 0.08505584 -0.8932525 -0.012656746 0.3299436 0.011419849 0.27385062 0.4054761 -0.4207733 0.9124541 0.0063392925 -0.6072008 0.37969548 0.0703492 0.16786198 0.14970648 -0.38939062 -0.73109365 0.3039734 0.03905455 0.021491326 0.12080851 -0.8326988 0.46984383 0.92889255 0.4678587 0.48832643 -0.3490923 -0.5181305 0.14190142 -0.27668527 -0.046782497 0.4659778 -0.077322185 -0.19048499 -0.1930584 -0.56557834 -0.30647755 0.19983815
41 -0.16558324 0.5290039 0.6201986 -0.38074186 0.094880655 -0.48102784 -0.069039986 0.03884065 0.00606897 0.14443554 -0.48960948 0.42754415 -0.20320596 0.15669212 0.033294804 -0.9923999 0.27237847 -0.51169384 -0.115971744 0.3977735 -0.39545783 -0.015833395 0.30066574 -0.70231324 -0.3093341 -0.28158626 0.19555303 0.3061601 -0.13695304 0.14832574 -0.7420513 0.21023461 -0.44812998 -0.17866269 -0.32579204 -0.8294094 0.34372744 0.71054864 0.29719025 -0.38204378 -0.6654593 -0.8643647 -0.08899834 -0.26910472 0.65042377 -0.24961485 0.6449607 0.29176268 0.26052323 -0.08884794 0.49847314 -0.9478192
105 -0.2124817 -0.13147584 -0.24563818 -0.30782264 0.49148503 0.19399618 -0.6294203 0.16218376 0.63400656 -0.32338002 -0.32166097 0.648006 -0.23225746 0.23974682 0.5713542 0.070261 -0.24248223 0.540535 -0.23374513 0.27915284 -0.0039899624 -0.18277775 -0.14524095 -0.8341008 -0.7551274 -0.3456318 0.18863772 0.5866943 -0.16371593 -0.67730415 -0.20579724 -0.07366705 -0.08383767 0.64637464 0.07877843 0.3357505 0.035462797 0.32999307 0.24833795 0.21474315 -0.24614727 -0.12583652 -0.06230027 0.93115526 0.29178268 -0.19504766 -0.39462212 -0.59990233 0.17119452 -0.121644326 0.14136185 0.2497946
269 -0.31611595 0.610536 -0.47105563 -0.26571107 -0.30610788 0.68998474 -0.22400032 -0.097275384 -0.009733855 0.005952739 -0.1143145 0.049729355 0.28955868 0.2656742 -0.3528238 -0.026287185 -0.188736 -0.15540968 -0.5180034 -0.05085236 0.5356984 0.70187014 0.27573198 0.19818814 -0.75293946 0.18562943 -0.41429904 0.08655771 -0.2557699 -1.0929672 -0.26115322 0.53254 0.14220656 0.9293251 -0.40020037 -0.44209743 0.83657956 0.14260681 0.2180121 0.28269708 0.37650305 0.04473201 0.09302285 -0.914842 1.1006444 0.22667581 0.39463073 -0.49923462 0.24020298 -0.18551682 0.97372437 -0.17879833
270 -0.27725163 0.5446904 -0.5089009 -0.25606573 -0.23114105 0.60989445 -0.3047226 0.054699812 -0.009443982 0.031026335 -0.20691866 0.04985657 0.21868293 0.20346025 -0.32696474 0.08445078 -0.2954831 -0.20329328 -0.47178367 0.084714524 0.41690007 0.5906947 0.10685358 0.1943086 -0.7319663 0.11091911 -0.3620681 0.14182717 -0.30218542 -1.1079836 -0.39491445 0.56795764 0.12295042 0.9636368 -0.45914102 -0.37623656 0.624944 -0.11422653 0.08308422 0.12715083 0.45642257 -0.01669278 0.23118623 -0.97646314 1.094372 0.085962094 0.65405506 -0.5355073 0.2595246 -0.28475112 0.95153964 -0.1430968
204 0.34908316 0.03233264 -0.032927874 -0.98153716 0.6386171 0.65633047 -0.22981632 1.0940748 0.29219833 -0.6550433 0.24647768 -0.564086 -0.14795582 -0.2097481 -0.1283398 -0.033619363 -0.26431474 -0.0113457795 -0.10315976 -0.9006772 0.4112215 -0.3076087 0.19649555 -0.5710553 0.41478622 -0.271892 -0.88843364 0.47116715 -0.17748722 -0.57401097 0.016971368 0.5478367 -0.078946374 1.1797122 -0.12227958 -0.20838617 0.3067642 0.88066953 0.74398327 0.11284809 -0.31123126 -0.8642111 0.33673313 -0.058738552 -0.25725824 0.1801904 0.34737742 -0.3213764 0.76065636 -0.86712885 -0.18243401 0.03744026
316 -0.042987645 0.17203182 -0.6588726 -1.0372214 0.5245549 0.032342326 -0.74473345 0.53869015 -0.26246384 -0.40047652 -0.03391951 -0.2539546 0.40489545 -0.07193748 0.6256286 -1.3828183 0.076535664 0.07782442 -0.19989043 0.41476706 0.12942882 -0.3826128 0.8846108 0.48488832 -0.20965327 -0.079445094 -0.60394955 0.091838785 0.2899486 -0.2730436 -0.49762213 0.14330755 -0.34136558 0.3800347 -0.38123554 -0.7642525 0.25473216 0.46772218 0.58324426 0.36733416 -0.5100515 -0.8574751 0.011416212 -0.6016511 0.035305828 0.20937532 -0.13098048 -0.18521118 -0.0761091 -0.16862047 -0.1958269 0.1725722
132 -0.2618868 -0.3635699 0.22085886 -0.34974745 0.29060915 0.12917776 -0.47416064 0.24472934 0.23565747 -0.33651125 -0.09247947 0.707762 -0.22400977 0.23016106 0.43939015 0.21289806 -0.34243825 0.6612873 -0.41581458 0.17384633 0.08670211 -0.12195432 -0.19543985 -0.7852164 -0.68275213 -0.7424252 0.3421064 0.40535754 0.0034796707 -0.7466509 -0.43770382 0.039613735 -0.31468582 0.7207724 0.0662283 0.5223291 0.07137266 0.36663485 0.18715952 0.13640615 -0.12945108 -0.045035195 -0.1824419 0.68354446 0.36450326 -0.48342845 -0.29092056 -0.52873766 0.5080594 -0.03513462 0.26411408 0.24530791
72 0.17634429 0.41213584 0.38785714 -0.47478372 0.22944276 -0.2771777 -0.27161673 0.4104947 0.019884184 -0.27380836 -0.28744584 0.36257932 -0.0075956513 0.28402036 -0.08783207 -0.61415774 0.479696 -0.50382894 -0.09211011 -0.18344553 -0.17326975 -0.0630692 0.44072807 -0.35999715 -0.008809618 -0.4464423 -0.25720432 0.27197507 -0.10682873 -0.36935145 -0.44942972 0.051106505 -0.3770926 0.2324146 -0.4537405 -0.69234717 0.3011367 0.5127658 0.42254764 0.08274818 -0.39117157 -0.9675469 0.21630166 0.28692952 0.110393666 -0.11630465 1.050004 0.23992994 -0.04089649 0.0007772501 0.08729301 -0.5732707
305 -0.39274034 -0.085791744 -0.61530036 -0.020625444 0.65489525 -0.314674 -0.7818488 0.42175245 0.4659129 -0.16254465 -0.3319633 0.08098371 0.28816223 0.3959345 0.22691709 -0.053821255 -0.1617437 0.66710466 -0.15022181 -0.23799826 0.10600014 -0.14106736 0.3246398 -0.46105143 -0.14823566 0.39802772 -0.19735746 0.6754996 0.44276586 -0.47626168 -0.070830956 -0.44447544 0.0893206 0.8286986 0.012361025 -0.060440164 -1.0037365 0.734043 0.7648737 0.36367148 0.8388555 0.14067039 -0.2715311 -0.3914345 0.31436384 -0.4323285 0.5278362 0.24859183 0.6812679 0.10867641 0.3764488 -0.6251911
324 0.038980506 -0.42652142 0.10115771 0.12245194 0.29137674 -0.22453712 0.2342583 -0.048025187 -0.7157146 -0.6199639 -0.20504059 0.6536993 0.47308692 0.7621814 -0.2091431 -0.5711832 0.44851315 0.44885957 -0.5188372 0.34938952 -0.49987426 0.68967766 0.33513498 0.105575204 -0.44204792 -0.15395363 -0.6191708 -0.12982449 -0.3326804 -0.9790909 -0.2819452 -0.24715178 -0.6248841 -0.5747551 -0.17110215 -0.39802182 -0.22137025 0.34183088 0.46165457 -0.5550488 -0.10516849 0.04512872 0.4408198 -0.8013325 0.08823996 -0.6871952 0.53563017 -0.6808323 0.38571146 0.33166796 0.23389676 -0.763164
94 0.09144598 -0.092303246 0.31589326 -0.78026146 -1.0115585 -0.4548236 -0.82199484 -0.20327543 0.9521444 -0.39472535 -1.0204047 -0.13522848 0.18726961 -0.03465057 -0.15842417 -0.29722214 -0.42915398 1.2421206 -0.04622843 0.061919976 0.57014483 -0.35300797 -0.0386439 -0.09499795 -0.7086339 -0.22704062 -1.2412834 -0.34291852 0.36850384 -0.5002939 -0.42452747 0.30420902 -0.56043375 0.2510778 0.1739293 -0.6692516 0.14128347 0.19749013 -0.1289319 0.6994479 0.77811676 -0.20995575 -0.7182844 -0.445455 -0.42022488 -0.188836 0.35517877 -0.18207331 0.39953467 0.65938747 0.1875694 -0.72075546
151 -0.038648464 0.5266178 0.46775627 -0.4773358 0.09518526 -0.26200765 -0.2473778 0.47848508 0.13670865 -0.3394839 -0.06436289 0.4145974 -0.120019495 0.5419835 0.24834087 -0.5014843 0.4663271 -0.45891264 -0.18670817 -0.08939639 -0.37776583 -0.15445949 0.26721573 -0.4642256 0.2741224 -0.34324768 -0.2360292 0.17707089 -0.38797784 -0.33112934 -0.4340695 0.3099904 -0.5695774 0.14977798 -0.18401557 -0.8342341 0.34422386 0.51587653 0.55559033 0.32043123 -0.40781042 -0.712064 0.12070273 0.27570176 0.12596285 0.0033506881 0.85761595 0.18201979 -0.074360535 -0.10047548 0.14445385 -0.76391304
206 0.15735598 0.077120036 -0.09561488 -0.9815867 0.56001854 0.65743876 -0.12280906 1.0146519 0.20351352 -0.67108065 0.08670315 -0.6544784 -0.13346411 -0.5783754 -0.07557727 0.013027635 -0.23375271 -0.17547086 -0.16954681 -0.8634489 0.3201815 -0.20343207 0.16752832 -0.5815673 0.35801944 -0.24833508 -1.0091742 0.49864522 0.060783576 -0.41064003 0.020034079 0.6507375 -0.2290012 1.0808878 -0.21152948 -0.22513531 0.43397662 0.8742824 0.7490238 0.19183362 -0.4102831 -0.7727267 0.26693326 -0.12812322 -0.2357052 0.088557325 0.4341607 -0.22574146 0.94969237 -0.82039505 -0.046190824 -0.0021251491
300 -0.54499257 -0.025221271 -0.5485018 -0.14998731 0.56649697 -0.41074216 -0.7048102 0.51073045 0.59042346 -0.37946695 -0.1892366 -0.040651973 0.35358095 0.5118761 0.20975615 -0.036530815 0.21232466 0.7203218 -0.16134283 -0.27345356 0.3619028 -0.22271493 0.28749782 -0.398236 -0.14641884 0.33623427 -0.32760516 0.6431648 0.64842874 -0.5917889 -0.057590473 -0.552114 0.030794539 0.7920653 0.138102 -0.14794728 -0.8658004 0.5407249 0.66724354 0.6001519 0.6309171 0.2586899 -0.3071457 -0.2904363 0.26563218 -0.65049213 0.42348838 0.23696868 0.79223627 0.23154022 0.5768326 -0.3622681
188 0.099898644 0.051471364 -0.21173848 -0.35240883 0.37792078 0.17544004 -0.5712955 0.005622575 1.1707371 -0.6699307 -0.9533291 0.64226156 -0.18962401 0.047793426 0.33772707 -0.285794 -0.34541833 -0.38496783 0.119523056 -0.13196553 -0.06674927 -0.46600813 0.43927693 -0.44040582 -0.39773354 0.3471368 0.09929026 0.84934783 -0.33438373 -0.75891364 0.6270989 -0.14637469 -0.20513603 0.78307414 -0.13024999 0.2332604 -0.4121383 0.19344467 0.09116952 -0.33956298 -0.28087738 0.29010308 0.054787938 0.5054072 0.7042923 -0.36220828 -0.4003284 -0.4054749 0.2127739 -0.015673295 0.40581954 0.48788893
142 0.15897146 -0.51494986 0.11556328 -0.07620471 0.42086488 -0.4425298 0.1549541 0.2747882 -0.8108935 -0.63992923 -0.14969495 0.8104476 0.3469231 0.5860668 -0.15285419 -0.6436703 0.31141862 0.38663822 -0.36426806 0.12160906 -0.5289216 0.91537607 0.16034184 0.30019122 -0.651215 -0.27289027 -0.33752647 -0.039483767 -0.388851 -0.7978511 -0.27556914 -0.038085084 -0.4191174 -0.37641 0.019622741 -0.7278385 -0.2722467 0.5053716 0.44906944 -0.69879127 -0.24524765 0.36618838 0.4390568 -0.80462897 0.048609074 -0.6454626 0.54894924 -0.59390736 0.34757572 0.446158 0.380476 -0.46379396
271 -0.21158901 0.31507516 -0.2991802 -0.36940134 -0.28038085 0.7158933 -0.3585914 -0.110194825 -0.045086958 -0.082856745 -0.17083213 0.05405825 0.34341618 0.36136886 -0.5469686 -0.0035392842 -0.20266496 -0.22424869 -0.45060495 0.052540746 0.6524971 0.5648892 0.22707881 0.22792456 -0.7334087 0.190381 -0.23291606 0.010646828 -0.14870158 -1.1128525 -0.38011613 0.40409398 0.103263736 0.97844297 -0.4820037 -0.29804602 0.67867756 0.13663277 0.095148 0.23815744 0.38496178 0.15729092 0.17629682 -0.94556653 1.0013605 0.12723793 0.5097549 -0.38714874 0.29192019 -0.4787515 0.97818404 -0.2761705
237 0.052080374 0.7404894 0.31971416 -0.43784237 -0.17045271 -0.28071594 -0.3928027 1.006417 0.23040366 -0.5277598 -0.8437472 0.27859333 0.096267045 0.37538192 -1.0177883 -0.3586309 0.51734275 0.06672036 -0.5235628 0.31565034 -0.15280254 0.086456664 -0.15453999 0.18610102 -0.017863853 -0.017648969 -0.8993275 0.035697397 -0.56169325 -0.3267915 -0.43686637 -0.6701911 0.19313897 0.87810284 -0.20538597 -0.3697904 0.4251946 0.38293862 0.83916414 -0.5134718 -0.25472254 -0.19350484 0.22478934 -0.37558243 -0.15428232 0.78430384 0.67593986 -0.19566879 0.6106963 0.14351399 0.8372666 0.5832394
314 -0.13597518 0.3870505 -0.8396518 -1.215143 0.5229806 -0.07880792 -0.68380374 0.65351844 -0.1984575 -0.46729988 0.26512232 -0.4405763 0.5699003 0.055946447 0.16266543 -1.185188 0.20587799 0.37297913 -0.16903801 0.5128349 0.117413744 -0.18726836 0.6416264 0.17698622 -0.18322289 -0.06338913 -0.466754 -0.09169448 0.054617576 -0.5054992 -0.6655248 0.19659239 -0.15319565 0.23014979 -0.20645113 -0.85402286 0.3272006 0.664943 0.52441305 0.43813092 -0.41555825 -0.48906657 -0.18367444 -0.4358434 -0.060760446 0.31216145 -0.45723763 -0.30987415 0.07532613 -0.4045455 -0.37920216 0.16616827
15 -0.55602723 0.28124586 -0.26302254 0.51651275 -0.05055596 0.052600197 -0.7152709 0.13513426 0.6315361 -0.60969174 -0.7895847 -0.52179456 0.02923766 -0.54771954 -0.30193743 0.2253014 0.15699002 0.7848458 -0.25746107 -0.31411746 -0.16229069 -0.11402155 0.15802307 -0.48621762 -0.497121 0.41756698 -0.47497422 0.07067755 0.029579658 -0.2379458 -0.051319726 -0.030290613 -0.86992526 0.539448 -0.5351355 -0.8584411 -0.97787356 1.028675 0.012364117 0.41893932 0.5301162 -0.28931946 -0.32673776 -1.3416693 -0.27761224 -0.42708954 0.17666252 -0.31892252 0.56400186 0.4304308 0.5663347 0.122932024
216 -0.23208253 -0.2873297 0.19579336 -0.5357338 0.12913537 0.20915273 -0.4638863 0.2569489 0.26496115 -0.46866694 -0.050081816 0.82143754 -0.22503716 0.11413456 0.554608 0.04994879 -0.22818542 0.5556607 -0.4328586 0.21166721 0.12201682 -0.20219366 -0.1096516 -0.8794418 -0.9285663 -0.57396185 0.21297142 0.4344401 0.058359805 -0.6898288 -0.35868248 0.07964033 0.020072225 0.56971204 -0.03254623 0.5055905 -0.009174884 0.54168123 0.0021979515 0.15019964 -0.07415692 0.13383105 0.08774691 0.9719506 0.2700696 -0.14138871 -0.28214058 -0.46054354 0.41756743 0.0011581762 0.42725787 0.25213507
35 0.09589647 -0.34120306 -0.12717041 -0.8905489 -0.8543419 -0.5879334 -0.675065 -0.058907744 0.9015392 -0.26108256 -0.6773797 -0.027862445 0.050332773 -0.17538631 -0.26653183 -0.45784575 -0.39667207 0.96667045 -0.1325136 -0.0001390372 0.60132825 -0.286583 0.14026247 0.04486849 -0.67814225 -0.22585846 -1.2508023 -0.23160385 0.117727324 -0.16775519 -0.12186479 0.4469555 -0.503398 0.24294762 0.069379 -0.40814528 0.047085445 0.24877085 -0.31064886 0.5757151 0.82123077 -0.15006055 -0.74033964 -0.2202248 -0.39879557 0.06468134 0.48948148 -0.54224324 0.25721234 0.36584324 0.16277479 -0.6237041
226 -0.27952528 0.29481158 0.40958837 -0.42844796 0.24526723 -0.18157822 -0.14291757 0.5198162 -0.029239936 -0.47387642 -0.14767054 0.34545395 0.100457944 0.36467135 0.16707668 -0.73962003 0.33286676 -0.5861763 -0.026763625 -0.114314266 -0.41222993 -0.009998773 0.31421322 -0.2538134 0.07587192 -0.23321383 -0.29171097 0.26672482 -0.07372492 -0.22103143 -0.5186717 0.30955747 -0.5599743 0.085372865 -0.34654418 -0.49044228 0.35703146 0.66265875 0.54737777 -0.119699664 -0.36130777 -0.81943035 0.0050761476 0.26129258 0.12823606 0.091049515 0.84364104 0.21940973 -0.13928539 -0.10054528 0.20121004 -0.7128546
257 0.20065834 -0.4194956 0.14793323 -0.07873342 0.33495754 -0.2248214 0.16212597 0.25267255 -0.6740524 -0.6934154 -0.22723365 0.80355036 0.33369008 0.75131553 -0.20916303 -0.5060727 0.60417885 0.4311611 -0.47779265 0.06007914 -0.48962042 0.9161651 0.11278344 0.40414158 -0.66848606 -0.2981025 -0.38963005 -0.07836706 -0.19553913 -0.7149812 -0.3920863 -0.23544806 -0.65976036 -0.3784773 -0.022887262 -0.63162977 -0.2753701 0.56997263 0.4559936 -0.5595184 -0.24884562 0.46114406 0.4004609 -0.79496855 -0.047244463 -0.519914 0.49639088 -0.64510524 0.28026712 0.26781797 0.3587768 -0.6597543
310 0.19264412 -0.14476013 -0.24771048 0.121710084 0.2738296 0.112455145 0.16286774 0.059810903 -0.7973268 -0.15923117 -0.0897086 0.95430267 0.5681005 0.5115586 -0.9532635 -0.6695478 0.14090927 -0.16137977 -0.37023932 0.9363285 0.15592079 0.5573181 1.0403922 -0.32621607 -0.44299218 -0.34887755 -0.8098325 0.11398051 -0.10753014 -1.3517784 -0.52420586 -0.02478099 -0.80639064 -0.32467523 0.5159441 -0.23904864 -0.24931544 0.32801673 0.6792689 -0.46695715 0.31619552 0.31295446 0.6522662 -0.47808632 -0.44509426 -0.3743139 0.43734187 -0.76362526 0.7919348 0.8806979 0.32747987 -0.6077698
272 -0.2420682 0.45259857 -0.37777913 -0.12922378 -0.26327673 0.56132936 -0.41947302 0.046552002 0.021092243 0.034491587 -0.09411842 0.016822044 0.31389502 0.2555438 -0.33810216 -0.008557549 -0.29589322 -0.101081334 -0.637769 0.0132034905 0.43741864 0.45433128 0.032393318 0.17552295 -0.68134797 0.18064293 -0.29563782 -0.04004527 -0.2215239 -1.1428198 -0.4698408 0.58520555 0.29727706 0.8760884 -0.21311015 -0.48702446 0.7721054 0.027715003 0.073589735 0.3180172 0.3528831 0.0050635897 0.1824641 -0.91883796 1.0166159 0.12337551 0.51689374 -0.6145368 0.17976958 -0.34641403 1.131841 -0.33276364
186 -0.031710826 0.22876701 0.17473781 -0.4239622 0.13425471 0.048638258 -0.17605694 0.031392403 0.8856584 -0.7642842 -0.4787792 0.7607402 -0.03512755 0.2534164 0.14587584 -0.08709898 -0.31498376 -0.0013271872 0.1362584 -0.06536208 -0.005093707 -0.5075466 0.25342616 -0.28750175 -0.5262653 -0.32244298 0.35505712 0.92570204 -0.03179435 -0.62011355 0.28129813 0.31224006 -0.087956026 0.6075484 -0.11245269 0.53081304 -0.25266892 0.34270632 0.19025476 0.25804362 -0.4966276 -0.002060792 0.14622787 0.32170394 0.7828795 -0.0070652044 -0.7626086 -0.3597554 0.2192117 -0.08791741 0.31801036 0.42040008
227 -0.24580742 0.48174402 0.36292297 -0.42550334 0.18890505 -0.12135267 -0.1112335 0.45899937 -0.07399353 -0.48716238 -0.08960075 0.3526054 0.16273895 0.4677958 0.18290311 -0.75648946 0.44018006 -0.5525439 0.073397316 -0.12099666 -0.28040794 0.049709532 0.20966335 -0.22099873 0.20383711 -0.28437367 -0.44752303 0.23101108 -0.23704284 -0.1926983 -0.46250758 0.2840197 -0.43046242 -0.020916674 -0.31606737 -0.4982094 0.27765313 0.74929273 0.5445487 0.052182484 -0.53353167 -0.74989045 -0.17934695 0.19062364 0.20628244 -0.0337263 0.94220275 0.12788777 -0.07891828 -0.12098875 0.30309254 -0.6687648
219 -0.17556666 0.08179611 0.6210941 -0.5402594 -0.018906333 0.48076645 -0.45746228 0.69824594 0.5825512 -0.39951536 0.044009957 0.5978488 0.7823074 0.32970962 0.3895703 -0.3637275 0.2759709 0.2126358 0.40578902 0.10039894 -0.76271766 -0.41148132 0.42898536 -0.8750511 -0.08569202 -0.9257026 -0.08632198 -0.020081412 -0.034858555 -0.27706593 0.3351457 0.61572325 0.059524402 0.43868122 -0.41866404 -0.04295531 0.07519353 0.6363552 0.70902807 0.7573043 -0.32335865 0.0079785595 -0.1411379 0.69375634 0.3779619 -0.20649792 -0.5328156 -0.301258 0.45739093 -0.15391228 1.2578721 0.0867672
304 -0.47051045 -0.18528694 -0.3418987 -0.46692604 0.31264964 -0.13019478 -0.6902395 0.39689246 0.5923341 -0.3861619 -0.4821182 -0.17260845 -0.01390662 0.5696535 -0.21034911 0.050413683 -0.13922192 1.0508785 -0.33833534 -0.2627805 0.08399416 -0.37936226 0.4637499 -0.5290873 -0.12365387 0.1929887 -0.33399594 0.5525527 0.30163217 -0.4589538 -0.07813376 -0.45815277 0.10051098 0.71949625 0.22011654 -0.114613004 -0.6920518 0.67412424 0.7159655 0.33411053 0.67557156 0.3956379 -0.3400342 -0.9993391 0.22199418 -0.64303416 0.42819285 0.2229778 0.39557248 0.17521095 0.3620446 -0.24065934
302 -0.61641896 -0.15153432 -0.47751954 -0.11536601 0.5993407 -0.33526713 -0.6157288 0.6106978 0.4110879 -0.24806672 -0.54597825 -0.06319128 0.073528625 0.32747883 0.361311 -0.059070703 -0.12644924 0.77820474 -0.21682021 -0.06672447 0.11215773 -0.35837117 0.44528446 -0.42751655 -0.146855 0.2883245 -0.27585524 0.64689803 0.55724305 -0.510176 -0.03556174 -0.3224559 -0.031986192 0.634444 0.033679128 -0.11714748 -0.91815543 0.48883426 0.50132173 0.36637956 0.9428337 0.032510236 -0.08932062 -0.66562134 0.26924184 -0.6919222 0.5521319 0.09421028 0.5769072 0.19175044 0.3736115 -0.45379448
306 -1.0751369 0.286576 -0.40010187 0.3379768 0.7351728 0.43211514 -0.87826425 0.13032418 0.88414025 -0.80635256 -0.46084908 0.18408573 0.3262389 0.066101134 0.07706231 0.3254654 0.3959025 0.8547871 -0.13983914 -0.3151257 0.32878202 -0.450279 0.24705079 -0.5963187 -0.2692798 0.40884313 -0.25965622 -0.0767085 0.10820517 -0.32144254 -0.31762642 -0.075599484 0.15592295 0.6598544 -0.15650392 -0.7909128 -1.2793183 0.7736436 0.40984407 0.37122637 1.1470445 -0.10497932 -0.28144917 -1.0850469 0.0042526573 -0.3696444 -0.016687507 -0.4876523 0.44377896 0.13797142 0.27794915 -0.74525446
207 0.22684863 -0.018100306 -0.047204006 -0.88176 0.60170114 0.81365055 -0.3449157 0.9546242 0.19900538 -0.56698567 -0.059237365 -0.7802785 -0.22345176 -0.4907146 -0.10775918 -0.14485922 -0.3339961 -0.30691895 -0.05754257 -1.0040877 0.2105179 -0.2091006 0.07330031 -0.47853717 0.30163348 -0.2194306 -1.1133327 0.562703 -0.14282092 -0.3713501 -0.15475063 0.862993 -0.2421726 0.97029686 -0.1302623 -0.19357486 0.31824294 0.78077865 0.7367953 -0.036492255 -0.23425591 -0.88344586 0.27617848 -0.077296026 -0.04579303 -0.06146635 0.312379 -0.24010594 1.030509 -0.85569245 -0.1088737 -0.19493271
159 0.8962002 0.48934945 -0.30017298 0.015059262 -0.49543327 0.3422387 -0.7043204 -0.3348894 -0.21788165 -1.0457228 0.17854272 0.04087023 -0.571169 0.11990858 0.06569551 -0.16071022 -0.094851784 1.0353929 0.5274201 0.08246481 0.21464564 -0.098167606 0.14677835 -0.25356728 -0.57147694 -0.2710469 -0.6241558 -0.038226396 -0.057235006 -0.079768226 -0.39844579 0.7121802 -0.7060896 0.5619831 -0.25279844 -0.04884318 -0.22017053 0.40174392 -0.56038254 0.66865194 0.6677649 -0.037452627 -0.5293911 -0.4158662 -0.49644256 -0.26986802 0.5742861 -0.2578333 0.6386774 0.17932118 0.44123393 -0.45181453
155 0.8796901 0.44680864 -0.20974438 0.020702844 -0.5893754 0.27840626 -0.6603592 -0.42245385 -0.20859209 -0.9622426 0.25456434 -0.090427764 -0.5685969 0.05804246 0.024455825 -0.06359336 -0.24185947 0.7976958 0.34801918 0.13734436 -0.07717283 -0.19843024 0.24362208 -0.2858192 -0.69966465 -0.3359678 -0.67716295 0.12553765 0.081314914 -0.1307 -0.4248622 0.65914655 -0.74154097 0.57921267 -0.31713656 -0.051712673 -0.112873375 0.4253726 -0.558049 0.7508028 0.59682494 -0.093826205 -0.54452616 -0.5622916 -0.48946467 -0.25294974 0.38419923 -0.19618668 0.6970292 0.26199093 0.48704755 -0.5733475
40 0.044703495 0.289692 0.18886025 -0.48266017 0.19898784 0.14879513 -0.26936123 0.119085684 1.0456153 -0.57104576 -0.40603736 0.84546995 0.05427122 0.2891584 0.37065908 -0.09620928 -0.1346808 0.15068437 0.13400438 -0.10603566 -0.18304874 -0.36173505 0.117640205 -0.20684676 -0.54882926 -0.161307 0.22185346 0.9287455 -0.2210645 -0.6113416 0.24945933 0.35184416 -0.30589762 0.6432733 -0.14100413 0.6811708 -0.34128234 0.318076 0.35008463 0.061887138 -0.3729537 0.070562385 0.07153649 0.31476137 0.59332067 0.23653355 -0.7055154 -0.37668654 0.21732472 -0.3324803 0.4370416 0.42444932
56 -0.22267003 -0.5091333 0.38305753 0.55956346 -0.12605153 0.70669335 -0.60184276 0.65402424 0.70446885 -0.81258994 -0.14741577 1.0934486 0.231511 -0.024169639 -0.3418165 0.7572464 -0.1452871 0.04738554 -0.10321212 0.046866376 -0.14470845 -0.24886256 0.08669578 -1.4031367 -0.65547377 -1.0190126 0.17587483 0.096624784 -0.14428218 -0.6078986 0.23320949 0.7524751 -0.23882392 -0.02083115 -0.61544895 0.33312044 0.2813488 0.34655023 0.5676378 0.5865033 0.2543871 0.12426754 -0.83766806 0.08497176 0.5962517 -0.20778894 0.5451396 -0.100915395 0.8528631 -0.5681088 0.62296057 0.064604305
158 0.09850214 0.32438308 0.054869622 -0.7797146 0.3945783 0.9880873 -0.045726836 0.78012574 0.43056017 -0.69762224 0.15992802 -0.48450568 -0.1714085 -0.21121895 0.027409721 -0.09781448 -0.31966048 0.0098909335 -0.1183965 -0.7749415 0.3334301 -0.3261986 0.09472668 -0.5802901 0.60031945 -0.16073994 -0.65256923 0.6828019 -0.25454083 -0.51017356 -0.200073 0.46135932 0.020425852 0.8891591 -0.29753846 -0.5291332 0.26863003 0.8761174 0.92620975 0.16677213 0.033798646 -1.2383347 0.20480733 0.07413614 -0.13594288 0.6901537 0.432928 -0.47326738 0.6910782 -1.0390494 0.01958187 -0.14527081
24 -0.38895485 -0.5888389 0.45016196 0.4670396 -0.17361349 0.36690083 -0.53315747 0.9602578 0.50443476 -0.54236174 -0.12707342 0.87711155 0.083796844 0.08867865 -0.19030157 0.75353634 -0.3008241 0.5401359 0.15392888 0.02793441 -0.086161755 -0.3997759 0.18503489 -1.1152786 -1.1616918 -1.0026112 0.095187604 0.11941197 -0.12338861 -0.5564742 0.041396286 0.46598485 -0.480371 0.13835353 -0.35198906 0.39908886 0.8010282 0.37067044 0.38799995 0.35771462 0.22244823 0.10634029 -0.43716085 0.16866294 0.4534065 -0.25790766 0.23009786 -0.27163714 0.9337654 -0.65651727 0.41394705 0.29621714
286 0.32745042 -0.40785727 -0.7313224 -0.700784 -0.23027082 -0.67815596 -0.6822925 -0.06800216 0.994327 -0.26735732 0.16055794 0.0450535 -0.13897371 -0.636973 -0.36536232 0.20389828 -0.4955453 0.5436748 0.12169281 0.35798934 0.5251782 0.27878207 0.07235285 0.3180986 -0.65675443 -0.004860991 -1.0558326 -0.14256334 0.08305099 -0.085335635 0.19256212 0.7471583 -0.3171068 -0.04197891 -0.054138 -0.08398247 -0.016157221 0.22007445 -0.14466095 -0.022248965 0.2266077 -0.20422985 -0.1030448 -0.0077389707 0.2764495 -0.1031285 0.27337027 -0.38866958 0.2626442 0.31470686 0.17658903 -0.8649366
118 -0.24031103 -0.18109466 0.10482514 -0.58897763 0.29264128 0.24296531 -0.2808752 0.22962494 0.40713575 -0.17241551 -0.054226495 0.7544757 -0.31474018 0.12776044 0.60883796 0.043442912 -0.31630635 0.4477892 -0.551901 0.4573122 0.12917484 -0.32686 -0.0036750752 -0.8183729 -0.7980081 -0.60406786 0.22728847 0.42944393 -0.14259852 -0.6503099 -0.2888544 -0.009203348 0.03469707 0.58650327 -0.0034569753 0.2787791 -0.015394017 0.6779817 0.037876647 0.1560364 0.06625932 0.05238303 0.04186646 0.897078 0.23039868 -0.31948215 -0.4073137 -0.5015451 0.54151446 -0.13510284 0.20179826 0.22177969
307 -0.37717858 0.022912418 -0.34125343 -0.38220868 0.39248717 0.032802064 -0.7086042 0.3518941 0.61613554 -0.47684538 -0.2751752 -0.14351784 0.0355923 0.40984336 -0.3665852 0.04151705 -0.07358539 1.0225292 -0.33922255 -0.2702925 0.08565452 -0.44536248 0.32274306 -0.5147408 -0.22496079 0.33675578 -0.1529536 0.69000494 0.364227 -0.4556651 -0.024208616 -0.5590985 -0.08890659 0.54286987 0.26366782 -0.025547272 -0.6398892 0.6954294 0.69671357 0.3965689 0.6403017 0.26063883 -0.1667918 -1.0264045 0.20283821 -0.8201813 0.5433039 0.18366598 0.418821 0.24950224 0.2582378 -0.37678078
246 -0.08643094 0.14616267 -0.08198076 -0.64683956 0.29190558 0.14952397 -0.29601932 0.106022015 0.62720215 -0.52910393 -0.4007406 0.68927574 -0.21822524 -0.005710973 0.6614251 0.11420565 -0.20679943 0.23525527 -0.005398925 0.1529471 -0.06755224 -0.17670031 -0.021501502 -0.7567824 -0.5113554 0.12816161 0.18335879 0.7735544 -0.27340934 -0.99481094 -0.15479805 -0.03294942 -0.20369022 0.57079947 -0.16590141 0.34485674 -0.0004227184 0.33389735 0.16173638 -0.14228064 -0.18815409 0.025536101 -0.22878538 0.7713339 0.4560834 -0.13556118 -0.4107048 -0.61399263 0.19659783 -0.08649026 0.42046577 0.5915758
263 -0.38817862 0.12946507 -0.41946566 -0.062812604 -0.23233981 0.55729103 -0.2506399 0.122219376 -0.24916121 0.0013389654 -0.02646421 -0.12016649 0.26380256 0.22515568 -0.3527254 -0.24919352 -0.028948339 -0.09078373 -0.7493359 0.14369266 0.38330257 0.5134263 -0.07811295 0.26607963 -0.78029174 0.36787844 -0.18175869 0.03864729 -0.06062967 -0.902131 -0.4262208 0.7498969 -0.12028801 1.0500747 -0.21728887 -0.24120708 0.75060946 -0.06206932 0.23665304 0.24454294 0.37817284 0.1980437 -0.13469084 -0.8100989 1.0568614 -0.13212706 0.5463255 -0.34779188 0.31455237 -0.32745805 1.1379014 -0.24211496
4 0.04625242 0.10741407 0.1959377 -0.5530662 0.17932951 -0.28548992 0.08371944 1.0109683 0.120770544 -0.47933805 0.22806506 -0.12150345 0.10035391 0.42570585 0.08897349 -0.53573936 0.099422246 -0.078294195 -0.14482756 -0.45175582 -0.604667 -0.45095688 0.31820258 -0.38245693 0.3235938 -0.18339635 -0.5125752 0.039361767 -0.4382084 -0.65349305 -0.3603303 0.69272953 -0.016771788 0.3740783 -0.06941849 -0.6919632 0.101765394 0.563978 0.44405162 -0.2497212 -0.28570625 -0.8671905 0.4124072 0.3259722 -0.039856575 -0.21060084 0.45602417 -0.011812816 0.146117 -0.25033703 0.21573071 -0.13273838
290 0.34137824 -0.3706147 -0.80252296 -0.7485508 -0.2690028 -0.722941 -0.5911644 -0.021475328 0.93791896 -0.28292552 0.24602252 0.07032742 -0.21603076 -0.65807796 -0.34624264 0.2205597 -0.30707273 0.79546505 0.071549326 0.35706723 0.5134891 0.4216916 0.022550374 0.37150246 -0.5141775 -0.024763472 -0.9343985 -0.17307499 0.12390132 -0.2044442 -0.009731206 0.83363235 -0.4129505 0.08537012 -0.11421054 0.016656546 -0.109893106 0.22889706 -0.18956493 -0.07995528 -0.0149593 -0.07973373 -0.27609235 -0.04643574 0.2928765 0.10683202 0.35129127 -0.34124744 0.1538658 0.30374673 0.14727809 -0.7759519
128 0.5817352 -0.808719 -0.01566928 -0.5594071 0.35273623 -0.25487778 0.03674984 1.2456977 0.6204803 -0.30311683 -0.19109096 -0.0012475471 0.52555 0.68082005 -0.39836058 -0.8703345 -0.059210416 0.07726363 -0.25628647 -0.45219362 -1.2770406 0.8244503 0.2216861 -0.23802066 -0.22922347 -0.47704437 -0.894603 -0.22865456 -0.17824422 -0.5630963 -0.3594704 0.1552256 -0.3142618 0.49596173 0.2280641 -1.0030484 -0.39293182 0.91065836 0.46012893 -0.23292723 0.35507143 -0.441498 0.20721278 -0.547732 -0.3158981 0.6126619 0.36154306 -0.3191768 -0.0027914816 0.09885472 0.019131815 0.3343657
126 -0.2574795 -0.27568206 0.3372321 0.47579205 -0.047635894 0.7208767 -0.794543 0.54675937 0.6759452 -0.70038754 -0.11382507 1.1295774 0.08772846 -0.078808464 -0.2189888 0.8690088 -0.2329673 -0.020808328 0.047377285 -0.0030591544 -0.11108192 -0.19276752 0.2585788 -1.3812431 -0.6557238 -1.0414246 0.30260545 0.15415855 -0.12710692 -0.45241272 0.22073229 0.76081145 -0.48566997 -0.114592716 -0.43438601 0.53169405 0.42241538 0.4643703 0.49222067 0.38864058 0.22408229 -0.091624096 -0.82437456 -0.065873474 0.7506221 -0.29328611 0.60808104 0.0965146 1.0542898 -0.5330971 0.56792814 0.06499102
189 -0.39828658 -0.35462686 -0.45897523 -0.33603945 0.08286481 0.07199025 -0.37309107 -0.45794645 0.50773454 -1.0743897 0.36058363 1.2061833 -0.5116216 7.051087e-06 0.1432164 -0.13757712 -0.35236636 0.03434271 -0.5557698 0.4216705 -0.20767254 -0.3483941 0.1434555 0.8010632 -0.16177367 0.40428513 0.19929938 1.4044206 -0.19358063 -0.8024869 0.53981954 -0.33268055 -0.098332286 0.6397438 0.19904566 0.009730874 -0.25618926 0.39388898 -0.1638057 -0.108777575 -0.45946428 -0.14867897 0.15967834 0.23568276 0.70136577 -0.35946962 -0.16728547 -0.7686001 0.091022335 -0.8637538 0.41996303 0.2890563
54 -0.31251922 0.1805602 -0.17137675 -0.6767604 0.21423711 0.15409371 -0.3166574 0.12276049 0.675646 -0.41775814 -0.53408945 0.5489672 -0.20645286 -0.03262802 0.74499494 0.20557138 -0.2643282 0.14265828 0.00064923643 0.11292693 -0.18189949 -0.07058835 -0.078496955 -0.7303324 -0.58195823 0.11415517 0.13749656 0.76669234 -0.28706375 -0.8259652 -0.10723272 0.05343014 -0.28449604 0.6024588 0.022460844 0.393177 -0.007916243 0.36729228 0.23123938 -0.17721827 -0.41824093 0.04521215 -0.03663414 0.62407166 0.45728785 -0.15406261 -0.57972664 -0.55738527 0.5205125 -0.020048201 0.27727488 0.40607452
25 -0.37207657 -0.11485302 0.039056823 -0.1777428 0.52136695 0.19082764 -0.054230727 -0.04924041 0.7743171 -0.88661397 -0.30598196 0.7764146 -0.18666969 0.3903893 0.51780844 0.0029271718 -0.34648934 0.20018274 -0.26972595 0.12765242 0.50483614 -0.5789607 0.31915596 -0.055363063 -0.45725986 0.17625561 0.14021377 0.8889401 -0.37000078 -0.6375055 0.367943 -0.16188444 -0.35780224 0.53613234 0.13171844 0.33421075 -0.4832128 0.2601326 -0.119111 0.011428508 -0.20488304 -0.14966527 -0.24120006 0.6937949 0.6238051 0.008529739 -0.30543926 -0.31970066 0.30001858 -0.4760917 0.34813553 0.005680382
253 -0.15133037 -0.27118278 0.3005303 -0.21058129 0.38731185 0.18529949 -0.34565848 0.35243788 0.29616782 -0.37237117 -0.16614364 0.79822147 -0.18702729 0.2960352 0.7196393 0.14439157 -0.22637837 0.69159305 -0.49581897 0.11371587 0.1695169 -0.105971836 -0.19494563 -0.74968904 -0.82813007 -0.6214322 0.06742001 0.40321672 -0.063781425 -0.7613946 -0.24978182 0.046025563 -0.24705984 0.6282548 0.32749316 0.46163476 0.17840238 0.50221723 0.20098786 -0.044684455 -0.14172187 0.054432828 -0.30456316 0.71124214 0.36807573 -0.4557574 -0.57054573 -0.41485927 0.3947707 -0.21166812 0.39561903 0.15483882
136 0.01241452 0.56839687 -0.40810364 -1.0814575 -0.0051250644 -0.22007911 -1.0531658 0.6619324 0.17209125 -0.5560134 0.08953039 -0.49913332 0.45767704 0.069555804 -0.19168618 -0.78671366 0.16949809 0.5357703 0.2390517 0.3770533 0.4171541 -0.29466996 0.63294 -0.17172067 -0.4721243 0.50606525 0.3945835 0.0031652802 -0.005776627 -0.44106996 -0.8178719 0.63374877 -0.24426177 0.069349684 0.34354445 -0.8966472 0.5246404 1.0292195 0.57076675 0.40958506 -0.22650366 -0.23737438 -0.059496228 -0.03307796 0.10089117 0.7457391 -0.206861 -0.5197515 0.22625881 -0.82877064 -0.18959473 0.50665456
9 -0.18554047 0.030030094 0.8233001 -0.5734657 -0.0128630875 0.6231778 -0.3784423 0.47995907 0.8164055 -0.31181237 0.037327234 0.5884342 0.5835109 0.31389397 0.31972852 -0.1952143 0.3088088 0.35121372 0.22921671 -0.009246716 -0.80613214 -0.3484077 0.76422775 -0.84014916 0.012160456 -0.6131507 -0.09731416 0.06621529 -0.022362271 -0.19858536 0.14972179 0.745793 -0.43277392 0.4588057 -0.32487318 0.16901125 0.08896138 0.3914876 0.8011708 0.8141968 -0.23869196 -0.25749415 0.06046018 0.631878 0.30363354 0.06629949 -0.5261032 -0.18621552 0.39119908 -0.23496266 1.2653589 0.099163696
66 0.48884335 0.1383121 0.094885916 -1.0774549 -0.44133762 -0.28934452 -0.2844523 -0.48539492 0.9890353 -0.60312337 -0.31174716 -0.37402472 -0.019949744 -0.2024892 -0.2938603 -0.066041015 0.40228283 1.2330517 0.74248415 0.22454521 -0.106087565 -0.7782966 0.21394633 -0.6891747 -0.13405307 -0.56628174 -1.2356476 -0.22493435 0.060033705 -0.2431815 -0.70916957 0.7100189 -1.07048 0.49250442 -0.79181415 -0.63168484 0.6880622 0.3510654 -1.0064924 1.4831967 0.7094915 -0.051807214 -0.41765237 -0.46328205 -0.029142175 0.07829638 0.22914685 -0.25587204 0.3995901 -0.08042656 0.748109 -0.6624142
317 -0.20398597 0.25583073 -0.41429803 -1.2556549 0.3487171 0.029789045 -0.8077557 0.6210503 -0.17373684 -0.6634854 0.18766901 -0.50003326 0.2276129 -0.07446091 0.18915641 -1.105556 0.17025425 0.15744326 -0.22763859 0.6260342 -0.0066551627 -0.18347557 1.0868644 0.3085677 -0.002832525 0.13771716 -0.33677197 0.18842123 0.2121375 -0.458299 -0.65137255 0.260261 -0.16736104 0.08916396 0.21338752 -0.81907666 0.20277196 0.46714976 0.528001 0.15840964 -0.26755467 -0.79393965 -0.025947126 -0.6947223 -0.0728809 0.26191226 -0.28204167 -0.11306046 0.057969343 -0.36943612 -0.13729225 0.014451066
247 -0.438914 -0.22031759 -0.5043108 -0.28536317 0.09235816 -0.14478694 -0.30218658 -0.4873707 0.40380666 -0.9929402 0.24103391 1.2880443 -0.52025574 0.13393478 0.38991064 -0.09296952 -0.6415894 -0.062469665 -0.7250437 0.47011176 -0.014026589 -0.35663483 0.124145925 0.5938917 0.057182282 0.15192403 0.10416345 1.2617158 -0.33515435 -0.76942927 0.7607203 0.11831969 -0.043836806 0.5650134 0.22389184 -0.049851913 -0.35136718 0.36204112 -0.4137577 0.15448198 -0.42838463 -0.14586665 0.2625829 0.2501369 0.66716367 -0.22242346 0.075015806 -0.6117808 0.23173366 -0.7936965 0.46585125 0.44822448
181 0.06527379 -0.40926877 0.11093058 0.4805054 0.5786293 -0.36437908 0.04792868 0.29563108 -0.8651574 -0.8163971 -0.12716514 1.0501865 0.25868478 0.6622703 -0.27544478 -0.6258165 0.5072823 0.71456426 -0.94024485 0.21751156 -0.13832477 0.33077258 0.14155455 0.35884157 -0.7834582 -0.16581148 -0.16324615 -0.04320765 -0.1563147 -0.5529989 0.10534537 0.121157505 -0.72771996 -0.33089364 -0.23865612 -0.68547505 -0.03553713 0.20703481 0.47644335 -0.85284686 -0.12846443 0.26390493 0.63554543 -0.7053041 -0.07903289 -0.17601149 0.66234154 -0.4586456 0.7590442 0.46240252 -0.09086334 -0.7100862
321 0.09954377 -0.53539973 0.13957393 0.60479736 0.45795172 -0.44934034 -0.023737362 0.30574065 -0.71684444 -0.60207814 -0.01661643 1.0433527 0.32786363 0.72763765 -0.3629488 -0.7780913 0.59452754 0.77555466 -0.955463 0.401556 -0.3521472 0.22221342 -0.012171239 0.17513047 -0.7173787 -0.114287175 -0.10004622 -0.07628176 -0.091008745 -0.66330874 0.13767947 -0.046947513 -0.8991826 -0.22329701 -0.21982512 -0.4495048 0.1855285 0.12762949 0.35793683 -0.6195361 -0.21035512 0.15693478 0.64337754 -0.81121314 -0.16705099 -0.3673481 0.8988638 -0.7090167 0.6929905 0.3632559 -0.1178542 -0.86177945
19 0.22970153 0.12132761 0.00880801 -0.553148 0.28676018 -0.2952274 0.032659713 0.9040953 0.16715947 -0.46647903 0.20247391 -0.13272786 0.24568677 0.5586041 -0.07460338 -0.6092416 0.14299308 0.13815911 -0.18579559 -0.31907076 -0.5736939 -0.18761255 0.1105681 -0.40984675 0.3088989 -0.42531404 -0.69499964 0.14531232 -0.4885266 -0.391921 -0.30291274 0.73691994 -0.037836824 0.3636819 -0.09887816 -0.65112114 0.07146571 0.56405896 0.67102605 0.045112047 -0.35110602 -0.6815011 0.4072513 0.41817722 -0.2501733 -0.09849288 0.61955094 -0.018955024 -0.124715924 -0.25616714 0.23952842 -0.15290827
18 -0.31617805 -0.41624126 0.54352987 0.427458 -0.014399822 0.5038176 -0.39250293 0.6748043 0.6865675 -0.7360976 -0.21642694 1.0837402 0.37339783 -0.148292 -0.36247227 0.7126826 -0.18427075 0.22828704 -0.08892892 0.1527032 -0.18868947 -0.3882493 0.15135637 -1.2705667 -0.6894669 -1.0489669 0.2718897 0.08714564 -0.0907874 -0.3972173 0.16858286 0.6798393 -0.32656205 0.0408581 -0.67354745 0.43371627 0.43054977 0.37670496 0.5241011 0.35972202 0.15821226 0.03271014 -0.923674 -0.039263785 0.5052604 -0.396886 0.3288475 0.022056768 1.3019052 -0.5408345 0.6955261 0.0723165
323 0.018137509 -0.5028555 0.112291746 0.5358089 0.47807097 -0.38675177 0.029827693 0.24022245 -0.7771879 -0.7132533 -0.0068988297 1.1024965 0.27860713 0.66486454 -0.145833 -0.64615715 0.49592555 0.70238024 -0.8541709 0.094966516 -0.25227895 0.36367914 0.26231173 0.2711463 -0.70618844 -0.17217924 -0.23173213 -0.20290986 -0.15504445 -0.70609075 0.07542626 0.10999871 -0.79001874 -0.28006878 -0.26107004 -0.74499387 0.10507562 0.26785895 0.34862337 -0.84782916 -0.05021322 0.38571453 0.5922772 -0.6796147 -0.14923853 -0.24197316 0.75234085 -0.63696134 0.68685585 0.38580474 0.049769066 -0.6673938
21 0.70172864 0.014948276 -0.0155473165 -0.91321063 -0.484864 -0.38935718 -0.21776205 -0.42285463 0.7747805 -0.59371126 -0.36440304 -0.064721555 0.22712597 -0.056915414 0.04801541 -0.170456 0.05219116 1.421303 0.21378954 0.06344152 0.13629746 -0.4506934 -0.05925719 -0.4363411 -0.39517018 -0.7202702 -1.3625019 -0.13308181 -0.2303823 -0.32566574 -0.8561702 0.9951367 -0.75927275 0.4751995 -0.50004834 -0.56479454 0.5411557 0.37685615 -0.96823895 1.1218569 0.44154054 0.1254388 -0.39849314 -0.69864863 -0.32648173 -0.15220934 0.19232477 -0.25500256 -0.2098104 -0.08333096 0.56815803 -0.7824544
175 -0.5284253 -0.44688636 0.44783065 0.55643326 -0.22825402 0.3808661 -0.5212091 0.92246616 0.6476609 -0.35617492 -0.12570123 0.8757859 0.0052766786 0.029015534 -0.20875266 0.66717005 -0.28595674 0.5616092 0.089165844 0.026884256 -0.14018445 -0.40778738 0.26287127 -1.2742481 -1.351606 -1.0574052 0.2397145 0.12919854 -0.24774913 -0.75560606 0.14074884 0.7038694 -0.37615496 0.053731754 -0.30110148 0.32452494 0.6445304 0.51646286 0.2779256 0.44490695 0.04647602 -0.040319122 -0.42582646 0.021164548 0.36023894 -0.39071825 0.11430931 -0.13320985 0.8250545 -0.5872276 0.37786677 0.23904622
315 -0.25870842 0.42904606 -0.43415174 -1.3751141 0.42994684 0.0052334745 -0.6999931 0.31884217 -0.16057004 -0.6148794 0.37268838 -0.48395202 0.50473994 -0.04145616 0.26696053 -1.1040027 0.12818761 0.2717286 -0.20944537 0.5463713 0.0067297416 -0.2161273 0.80553204 0.17588243 -0.2848625 -0.0588945 -0.5328249 0.13192306 0.18048716 -0.44606555 -0.5881592 0.41247284 -0.10085167 0.18338768 0.25209442 -0.6609315 0.35524938 0.5760635 0.58344406 0.35583472 -0.34501448 -0.9005758 0.089401916 -0.62428623 0.11919566 0.18630491 -0.26984063 0.07484936 -0.05149197 -0.33001065 -0.2346872 0.10322756
240 -0.39940128 0.8684565 -0.14944544 0.44990128 -0.09268084 -0.012577583 -1.1730356 -0.50927603 0.68880016 -0.6475506 -0.5893247 -0.42025787 -0.16475417 -0.43011424 -0.46313146 0.41712195 0.84544224 0.726694 -0.03986688 -0.7422279 0.06344139 0.13776654 0.055720072 -0.29213786 -0.70719594 -0.04570614 -0.607655 -0.1828413 0.1578346 -0.38708353 0.28132161 0.26996416 -1.0225493 0.64453053 -0.36483547 -0.81611687 -0.3657374 1.037879 0.17367885 0.19310442 0.4792269 -0.34322837 -0.13601598 -1.5264864 -0.36814514 -0.7432772 -0.011555502 -0.083328135 0.23301758 0.46719047 0.4700431 -0.114837795
43 0.59705794 1.254815 -0.3937053 -0.27791974 -0.12723106 0.49055636 -1.146247 -0.048917767 0.19563222 -0.61639047 -0.11046576 -0.8910329 0.27305508 0.20620628 0.08836102 -0.335131 -0.1797525 0.6672647 0.7811792 1.5668267 0.13578342 -0.5332293 -0.6095383 -0.9504809 -0.2026646 0.37664962 0.1541374 -0.3086119 0.076852605 -0.62895656 0.23741071 1.2826395 -1.0078071 1.1430129 -0.04148375 -0.3953358 0.8654891 0.7304799 -0.0940324 0.2238571 -0.085527614 -0.93634266 -0.2863972 -0.27368078 -0.095819965 1.9320241 -0.67843914 -0.8661092 1.002497 0.049315326 -0.30054885 -0.47355124
239 0.4552394 -0.35682303 -0.61472946 -0.67187923 -0.21033865 -0.6066937 -0.63916796 0.10627593 1.0875183 -0.28931776 0.11608816 0.005240232 -0.025671666 -0.5126248 -0.4867836 0.02435933 -0.46393526 0.5238155 -0.18974097 0.304424 0.6623572 0.16059127 -0.0135352295 0.2187495 -0.59916896 -0.13542147 -0.7842249 -0.07167371 0.3703513 -0.15261221 0.15986943 0.5810723 -0.39804447 -0.13005544 -0.22067507 -0.06562961 0.031620994 0.2584894 -0.3521316 -0.105710834 0.5036033 -0.31516388 -0.30412972 -0.17950802 -0.005621484 0.08274382 0.17889726 -0.43766746 0.34246302 0.40903604 0.23767217 -0.8606699
107 -0.33886904 0.03264124 0.14115651 -0.344518 0.54208475 0.07426467 -0.16863436 -0.14340906 0.7816768 -0.8718301 -0.53228754 0.6811883 -0.19361046 0.29612732 0.4805651 -0.14424352 -0.31797644 0.03549196 -0.3580814 0.048275124 0.5666653 -0.58829784 0.1241233 -0.038109925 -0.57838756 0.044109818 0.2049204 0.9915837 -0.20612702 -0.5328071 0.42718884 -0.042792 -0.07324458 0.47400057 0.16916732 0.30505598 -0.49245083 0.26082692 -0.017225722 -0.27247638 -0.2909705 0.03406871 -0.26985115 0.52735674 0.54627186 -0.04477525 -0.34355065 -0.47378168 0.53462535 -0.44927797 0.50862825 0.20051557
55 -0.14456867 -0.3254199 0.576377 -0.5494031 -0.07263712 0.7068968 -0.21889763 0.51358247 0.82701063 -0.20140834 -0.06373484 0.56640965 0.5749064 0.3094703 0.30487278 -0.4387551 0.12330509 0.2976722 0.4261926 -0.08897474 -0.9429825 -0.39853585 0.71114725 -0.8586764 -0.12115448 -0.5302824 -0.001973838 0.03642961 -0.1586636 -0.3794687 0.30176708 0.7923885 -0.4048018 0.5180559 -0.23104599 0.10637087 -0.2275156 0.44807425 0.76458687 0.8408548 -0.335303 -0.46483073 -0.196616 0.5461287 0.4585836 0.13104439 -0.454865 -0.27026656 0.12958327 -0.24259232 1.2417932 0.15667513
244 -0.024709957 0.8280804 -0.6297233 -0.91158813 0.15281664 -0.34655124 -0.98859674 0.8010084 0.34918833 -0.49761194 0.16900767 -0.50368714 0.6456672 -0.13497928 -0.37884638 -0.9674321 0.13921516 0.5803128 0.10726209 0.46501252 0.08667614 -0.4761486 0.71782476 -0.52870935 -0.23432706 0.475963 0.5273784 0.14417733 0.09639461 -0.45900553 -0.8282874 0.5235422 -0.18650962 0.12408039 0.1925806 -0.9913651 0.6739044 1.0660586 0.3311632 0.5162018 0.1307669 -0.08386464 0.12192736 0.079647794 0.17626731 0.8429006 -0.20906949 -0.49950838 0.34799588 -0.5716798 -0.31549603 0.36719316
243 0.19176711 0.7766916 -0.60038245 -0.88319415 0.2540756 -0.46327326 -1.0149475 0.9374696 0.26562387 -0.55781376 0.095019475 -0.33835024 0.6635109 -0.20101027 -0.23675252 -0.8899936 0.18509112 0.3461152 0.10883753 0.42029172 0.40175644 -0.3643663 0.49961668 -0.4736775 -0.3016819 0.4597286 0.49068233 0.12673646 0.22552653 -0.45494616 -0.697289 0.5997484 -0.15348262 0.1483383 0.18189217 -0.91493565 0.7267007 0.86537755 0.40030342 0.5220673 -0.105198555 -0.12613551 0.034648567 0.088587806 -0.024183273 0.7281596 -0.02470299 -0.61943746 0.20203161 -0.5648161 -0.20610006 0.3083684
273 -0.19333258 0.38494334 -0.3600187 -0.113573 -0.27857792 0.60201424 -0.45760012 -0.06467736 -0.03748739 0.089264795 -0.18766914 0.040311843 0.29628453 0.22438975 -0.46408665 -0.039558087 -0.24822162 -0.09037541 -0.52434856 0.1017217 0.44739223 0.4329776 0.15970276 0.2688582 -0.86210006 0.14150934 -0.16764535 0.0032462503 -0.11475747 -1.087319 -0.41145983 0.52498037 0.28105056 0.9383764 -0.27996224 -0.4883913 0.65617156 0.0044415514 0.06450924 0.28016362 0.29402646 0.060348555 0.102398485 -0.93331176 1.0439023 0.12278647 0.54625726 -0.4681843 0.39696428 -0.50472957 0.9881244 -0.30253887
